digraph Tree {
node [shape=box, style="filled, rounded", color="black", fontname="helvetica"] ;
edge [fontname="helvetica"] ;
0 [label="duration <= 0.0\nsquared_error = 1.14\nsamples = 15720\nvalue = 0.63", fillcolor="#fdf7f2"] ;
1 [label="duration <= 0.0\nsquared_error = 0.39\nsamples = 13766\nvalue = 0.39", fillcolor="#fefaf7"] ;
0 -> 1 [labeldistance=2.5, labelangle=45, headlabel="True"] ;
2 [label="duration <= 0.0\nsquared_error = 0.18\nsamples = 10745\nvalue = 0.24", fillcolor="#fefcfa"] ;
1 -> 2 ;
3 [label="duration <= 0.0\nsquared_error = 0.09\nsamples = 6286\nvalue = 0.14", fillcolor="#fffdfc"] ;
2 -> 3 ;
4 [label="rvdendity <= 0.12\nsquared_error = 0.06\nsamples = 3620\nvalue = 0.1", fillcolor="#fffefd"] ;
3 -> 4 ;
5 [label="dc <= 0.01\nsquared_error = 0.17\nsamples = 443\nvalue = 0.18", fillcolor="#fffdfb"] ;
4 -> 5 ;
6 [label="squared_error = -0.0\nsamples = 1\nvalue = 2.88", fillcolor="#f7d9c4"] ;
5 -> 6 ;
7 [label="dmc <= 0.03\nsquared_error = 0.14\nsamples = 442\nvalue = 0.17", fillcolor="#fffdfc"] ;
5 -> 7 ;
8 [label="doy <= 0.04\nsquared_error = 0.65\nsamples = 29\nvalue = 0.59", fillcolor="#fdf7f3"] ;
7 -> 8 ;
9 [label="isi <= 0.28\nsquared_error = 1.28\nsamples = 2\nvalue = 2.35", fillcolor="#f9e0cf"] ;
8 -> 9 ;
10 [label="squared_error = 0.0\nsamples = 1\nvalue = 0.39", fillcolor="#fefaf7"] ;
9 -> 10 ;
11 [label="squared_error = -0.0\nsamples = 1\nvalue = 3.0", fillcolor="#f7d8c1"] ;
9 -> 11 ;
12 [label="ffmc <= 0.64\nsquared_error = 0.27\nsamples = 27\nvalue = 0.42", fillcolor="#fefaf6"] ;
8 -> 12 ;
13 [label="ffmc <= 0.43\nsquared_error = 0.09\nsamples = 3\nvalue = 1.36", fillcolor="#fbede3"] ;
12 -> 13 ;
14 [label="squared_error = 0.0\nsamples = 1\nvalue = 1.88", fillcolor="#fae7d9"] ;
13 -> 14 ;
15 [label="avg_inclination <= 0.18\nsquared_error = 0.0\nsamples = 2\nvalue = 1.19", fillcolor="#fcf0e7"] ;
13 -> 15 ;
16 [label="squared_error = 0.0\nsamples = 1\nvalue = 1.13", fillcolor="#fcf0e8"] ;
15 -> 16 ;
17 [label="squared_error = -0.0\nsamples = 1\nvalue = 1.21", fillcolor="#fcefe6"] ;
15 -> 17 ;
18 [label="avg_altitude <= 0.28\nsquared_error = 0.18\nsamples = 24\nvalue = 0.32", fillcolor="#fefbf8"] ;
12 -> 18 ;
19 [label="squared_error = -0.0\nsamples = 1\nvalue = 1.41", fillcolor="#fbede2"] ;
18 -> 19 ;
20 [label="avg_altitude <= 0.55\nsquared_error = 0.09\nsamples = 23\nvalue = 0.23", fillcolor="#fefcfa"] ;
18 -> 20 ;
21 [label="doy <= 0.56\nsquared_error = 0.04\nsamples = 20\nvalue = 0.14", fillcolor="#fffdfc"] ;
20 -> 21 ;
22 [label="dmc <= 0.02\nsquared_error = 0.0\nsamples = 14\nvalue = 0.05", fillcolor="#fffefe"] ;
21 -> 22 ;
23 [label="avg_altitude <= 0.42\nsquared_error = 0.0\nsamples = 7\nvalue = 0.01", fillcolor="#ffffff"] ;
22 -> 23 ;
24 [label="cosn5variety <= 0.57\nsquared_error = 0.0\nsamples = 5\nvalue = 0.01", fillcolor="#ffffff"] ;
23 -> 24 ;
25 [label="avg_inclination <= 0.12\nsquared_error = 0.0\nsamples = 4\nvalue = 0.01", fillcolor="#ffffff"] ;
24 -> 25 ;
26 [label="squared_error = 0.0\nsamples = 1\nvalue = 0.0", fillcolor="#ffffff"] ;
25 -> 26 ;
27 [label="dmc <= 0.01\nsquared_error = 0.0\nsamples = 3\nvalue = 0.01", fillcolor="#ffffff"] ;
25 -> 27 ;
28 [label="squared_error = 0.0\nsamples = 1\nvalue = 0.01", fillcolor="#ffffff"] ;
27 -> 28 ;
29 [label="avg_altitude <= 0.35\nsquared_error = 0.0\nsamples = 2\nvalue = 0.01", fillcolor="#ffffff"] ;
27 -> 29 ;
30 [label="squared_error = 0.0\nsamples = 1\nvalue = 0.01", fillcolor="#ffffff"] ;
29 -> 30 ;
31 [label="squared_error = 0.0\nsamples = 1\nvalue = 0.01", fillcolor="#ffffff"] ;
29 -> 31 ;
32 [label="squared_error = 0.0\nsamples = 1\nvalue = 0.02", fillcolor="#ffffff"] ;
24 -> 32 ;
33 [label="lon <= 0.74\nsquared_error = 0.0\nsamples = 2\nvalue = 0.03", fillcolor="#fffffe"] ;
23 -> 33 ;
34 [label="squared_error = 0.0\nsamples = 1\nvalue = 0.03", fillcolor="#fffffe"] ;
33 -> 34 ;
35 [label="squared_error = 0.0\nsamples = 1\nvalue = 0.03", fillcolor="#fffffe"] ;
33 -> 35 ;
36 [label="dmc <= 0.03\nsquared_error = 0.01\nsamples = 7\nvalue = 0.11", fillcolor="#fffefd"] ;
22 -> 36 ;
37 [label="avg_inclination <= 0.22\nsquared_error = 0.0\nsamples = 3\nvalue = 0.19", fillcolor="#fefcfb"] ;
36 -> 37 ;
38 [label="squared_error = 0.0\nsamples = 1\nvalue = 0.26", fillcolor="#fefcfa"] ;
37 -> 38 ;
39 [label="cosn5variety <= 0.31\nsquared_error = 0.0\nsamples = 2\nvalue = 0.16", fillcolor="#fffdfc"] ;
37 -> 39 ;
40 [label="squared_error = 0.0\nsamples = 1\nvalue = 0.18", fillcolor="#fffdfb"] ;
39 -> 40 ;
41 [label="squared_error = 0.0\nsamples = 1\nvalue = 0.14", fillcolor="#fffdfc"] ;
39 -> 41 ;
42 [label="rvdendity <= 0.07\nsquared_error = 0.0\nsamples = 4\nvalue = 0.05", fillcolor="#fffefe"] ;
36 -> 42 ;
43 [label="squared_error = 0.0\nsamples = 1\nvalue = 0.0", fillcolor="#ffffff"] ;
42 -> 43 ;
44 [label="relative_humidity <= 0.34\nsquared_error = 0.0\nsamples = 3\nvalue = 0.07", fillcolor="#fffefe"] ;
42 -> 44 ;
45 [label="squared_error = 0.0\nsamples = 1\nvalue = 0.1", fillcolor="#fffefd"] ;
44 -> 45 ;
46 [label="lon <= 0.58\nsquared_error = 0.0\nsamples = 2\nvalue = 0.06", fillcolor="#fffefe"] ;
44 -> 46 ;
47 [label="squared_error = 0.0\nsamples = 1\nvalue = 0.07", fillcolor="#fffefe"] ;
46 -> 47 ;
48 [label="squared_error = -0.0\nsamples = 1\nvalue = 0.05", fillcolor="#fffefe"] ;
46 -> 48 ;
49 [label="avg_altitude <= 0.41\nsquared_error = 0.06\nsamples = 6\nvalue = 0.36", fillcolor="#fefaf8"] ;
21 -> 49 ;
50 [label="dmc <= 0.03\nsquared_error = 0.0\nsamples = 3\nvalue = 0.15", fillcolor="#fffdfc"] ;
49 -> 50 ;
51 [label="wind_intensity <= 0.51\nsquared_error = 0.0\nsamples = 2\nvalue = 0.18", fillcolor="#fffdfb"] ;
50 -> 51 ;
52 [label="squared_error = 0.0\nsamples = 1\nvalue = 0.18", fillcolor="#fffdfb"] ;
51 -> 52 ;
53 [label="squared_error = -0.0\nsamples = 1\nvalue = 0.17", fillcolor="#fffdfb"] ;
51 -> 53 ;
54 [label="squared_error = -0.0\nsamples = 1\nvalue = 0.05", fillcolor="#fffefe"] ;
50 -> 54 ;
55 [label="wind_intensity <= 0.61\nsquared_error = 0.01\nsamples = 3\nvalue = 0.62", fillcolor="#fdf7f2"] ;
49 -> 55 ;
56 [label="lon <= 0.8\nsquared_error = 0.0\nsamples = 2\nvalue = 0.54", fillcolor="#fef8f4"] ;
55 -> 56 ;
57 [label="squared_error = 0.0\nsamples = 1\nvalue = 0.59", fillcolor="#fdf7f3"] ;
56 -> 57 ;
58 [label="squared_error = -0.0\nsamples = 1\nvalue = 0.49", fillcolor="#fef9f5"] ;
56 -> 58 ;
59 [label="squared_error = 0.0\nsamples = 1\nvalue = 0.69", fillcolor="#fdf6f1"] ;
55 -> 59 ;
60 [label="dc <= 0.11\nsquared_error = 0.04\nsamples = 3\nvalue = 0.75", fillcolor="#fdf5f0"] ;
20 -> 60 ;
61 [label="squared_error = 0.0\nsamples = 1\nvalue = 0.98", fillcolor="#fcf2eb"] ;
60 -> 61 ;
62 [label="lon <= 0.5\nsquared_error = 0.0\nsamples = 2\nvalue = 0.6", fillcolor="#fdf7f3"] ;
60 -> 62 ;
63 [label="squared_error = 0.0\nsamples = 1\nvalue = 0.56", fillcolor="#fdf8f4"] ;
62 -> 63 ;
64 [label="squared_error = -0.0\nsamples = 1\nvalue = 0.69", fillcolor="#fdf6f1"] ;
62 -> 64 ;
65 [label="lat <= 0.87\nsquared_error = 0.09\nsamples = 413\nvalue = 0.14", fillcolor="#fffdfc"] ;
7 -> 65 ;
66 [label="doy <= 0.18\nsquared_error = 0.08\nsamples = 407\nvalue = 0.13", fillcolor="#fffdfc"] ;
65 -> 66 ;
67 [label="avg_altitude <= 0.17\nsquared_error = 0.37\nsamples = 44\nvalue = 0.33", fillcolor="#fefbf8"] ;
66 -> 67 ;
68 [label="rvdendity <= 0.1\nsquared_error = 1.76\nsamples = 2\nvalue = 2.15", fillcolor="#f9e3d3"] ;
67 -> 68 ;
69 [label="squared_error = 0.0\nsamples = 1\nvalue = 0.28", fillcolor="#fefbf9"] ;
68 -> 69 ;
70 [label="squared_error = 0.0\nsamples = 1\nvalue = 3.09", fillcolor="#f7d7c0"] ;
68 -> 70 ;
71 [label="doy <= 0.02\nsquared_error = 0.09\nsamples = 42\nvalue = 0.23", fillcolor="#fefcfa"] ;
67 -> 71 ;
72 [label="rvdendity <= 0.09\nsquared_error = 0.14\nsamples = 3\nvalue = 0.73", fillcolor="#fdf6f0"] ;
71 -> 72 ;
73 [label="squared_error = 0.0\nsamples = 1\nvalue = 0.02", fillcolor="#ffffff"] ;
72 -> 73 ;
74 [label="duration <= 0.0\nsquared_error = 0.05\nsamples = 2\nvalue = 0.87", fillcolor="#fdf4ed"] ;
72 -> 74 ;
75 [label="squared_error = 0.0\nsamples = 1\nvalue = 1.13", fillcolor="#fcf0e8"] ;
74 -> 75 ;
76 [label="squared_error = -0.0\nsamples = 1\nvalue = 0.69", fillcolor="#fdf6f1"] ;
74 -> 76 ;
77 [label="dmc <= 0.9\nsquared_error = 0.05\nsamples = 39\nvalue = 0.16", fillcolor="#fffdfc"] ;
71 -> 77 ;
78 [label="dmc <= 0.12\nsquared_error = 0.03\nsamples = 38\nvalue = 0.13", fillcolor="#fffdfc"] ;
77 -> 78 ;
79 [label="dmc <= 0.06\nsquared_error = 0.05\nsamples = 12\nvalue = 0.26", fillcolor="#fefcfa"] ;
78 -> 79 ;
80 [label="avg_altitude <= 0.38\nsquared_error = 0.02\nsamples = 10\nvalue = 0.19", fillcolor="#fefdfb"] ;
79 -> 80 ;
81 [label="cosn5variety <= 0.36\nsquared_error = 0.01\nsamples = 4\nvalue = 0.34", fillcolor="#fefbf8"] ;
80 -> 81 ;
82 [label="ffmc <= 0.9\nsquared_error = 0.0\nsamples = 3\nvalue = 0.38", fillcolor="#fefaf7"] ;
81 -> 82 ;
83 [label="squared_error = 0.0\nsamples = 2\nvalue = 0.34", fillcolor="#fefbf8"] ;
82 -> 83 ;
84 [label="squared_error = -0.0\nsamples = 1\nvalue = 0.48", fillcolor="#fef9f5"] ;
82 -> 84 ;
85 [label="squared_error = -0.0\nsamples = 1\nvalue = 0.21", fillcolor="#fefcfb"] ;
81 -> 85 ;
86 [label="cosn5variety <= 0.65\nsquared_error = 0.0\nsamples = 6\nvalue = 0.06", fillcolor="#fffefe"] ;
80 -> 86 ;
87 [label="precipitation <= 0.0\nsquared_error = 0.0\nsamples = 4\nvalue = 0.03", fillcolor="#fffffe"] ;
86 -> 87 ;
88 [label="dmc <= 0.03\nsquared_error = 0.0\nsamples = 3\nvalue = 0.02", fillcolor="#ffffff"] ;
87 -> 88 ;
89 [label="squared_error = 0.0\nsamples = 1\nvalue = 0.01", fillcolor="#ffffff"] ;
88 -> 89 ;
90 [label="cosn5variety <= 0.47\nsquared_error = 0.0\nsamples = 2\nvalue = 0.02", fillcolor="#ffffff"] ;
88 -> 90 ;
91 [label="squared_error = 0.0\nsamples = 1\nvalue = 0.03", fillcolor="#fffffe"] ;
90 -> 91 ;
92 [label="squared_error = -0.0\nsamples = 1\nvalue = 0.02", fillcolor="#ffffff"] ;
90 -> 92 ;
93 [label="squared_error = 0.0\nsamples = 1\nvalue = 0.05", fillcolor="#fffefe"] ;
87 -> 93 ;
94 [label="relative_humidity <= 0.5\nsquared_error = 0.0\nsamples = 2\nvalue = 0.12", fillcolor="#fffdfd"] ;
86 -> 94 ;
95 [label="squared_error = 0.0\nsamples = 1\nvalue = 0.1", fillcolor="#fffefd"] ;
94 -> 95 ;
96 [label="squared_error = 0.0\nsamples = 1\nvalue = 0.14", fillcolor="#fffdfc"] ;
94 -> 96 ;
97 [label="lon <= 0.63\nsquared_error = 0.03\nsamples = 2\nvalue = 0.65", fillcolor="#fdf7f2"] ;
79 -> 97 ;
98 [label="squared_error = 0.0\nsamples = 1\nvalue = 0.48", fillcolor="#fef9f5"] ;
97 -> 98 ;
99 [label="squared_error = 0.0\nsamples = 1\nvalue = 0.81", fillcolor="#fdf4ee"] ;
97 -> 99 ;
100 [label="dc <= 0.89\nsquared_error = 0.01\nsamples = 26\nvalue = 0.07", fillcolor="#fffefe"] ;
78 -> 100 ;
101 [label="dc <= 0.74\nsquared_error = 0.01\nsamples = 25\nvalue = 0.05", fillcolor="#fffefe"] ;
100 -> 101 ;
102 [label="avg_inclination <= 0.57\nsquared_error = 0.0\nsamples = 22\nvalue = 0.04", fillcolor="#fffffe"] ;
101 -> 102 ;
103 [label="dc <= 0.19\nsquared_error = 0.0\nsamples = 20\nvalue = 0.03", fillcolor="#fffffe"] ;
102 -> 103 ;
104 [label="squared_error = 0.0\nsamples = 1\nvalue = 0.1", fillcolor="#fffefd"] ;
103 -> 104 ;
105 [label="rvdendity <= 0.1\nsquared_error = 0.0\nsamples = 19\nvalue = 0.02", fillcolor="#ffffff"] ;
103 -> 105 ;
106 [label="ffmc <= 0.95\nsquared_error = 0.0\nsamples = 12\nvalue = 0.03", fillcolor="#fffffe"] ;
105 -> 106 ;
107 [label="dmc <= 0.24\nsquared_error = 0.0\nsamples = 9\nvalue = 0.02", fillcolor="#ffffff"] ;
106 -> 107 ;
108 [label="avg_inclination <= 0.33\nsquared_error = 0.0\nsamples = 4\nvalue = 0.01", fillcolor="#ffffff"] ;
107 -> 108 ;
109 [label="dc <= 0.6\nsquared_error = 0.0\nsamples = 3\nvalue = 0.02", fillcolor="#ffffff"] ;
108 -> 109 ;
110 [label="doy <= 0.02\nsquared_error = 0.0\nsamples = 2\nvalue = 0.02", fillcolor="#ffffff"] ;
109 -> 110 ;
111 [label="squared_error = 0.0\nsamples = 1\nvalue = 0.02", fillcolor="#ffffff"] ;
110 -> 111 ;
112 [label="squared_error = 0.0\nsamples = 1\nvalue = 0.02", fillcolor="#ffffff"] ;
110 -> 112 ;
113 [label="squared_error = -0.0\nsamples = 1\nvalue = 0.01", fillcolor="#ffffff"] ;
109 -> 113 ;
114 [label="squared_error = 0.0\nsamples = 1\nvalue = 0.0", fillcolor="#ffffff"] ;
108 -> 114 ;
115 [label="dmc <= 0.51\nsquared_error = 0.0\nsamples = 5\nvalue = 0.03", fillcolor="#fffffe"] ;
107 -> 115 ;
116 [label="lat <= 0.68\nsquared_error = 0.0\nsamples = 4\nvalue = 0.03", fillcolor="#fffffe"] ;
115 -> 116 ;
117 [label="lon <= 0.63\nsquared_error = 0.0\nsamples = 3\nvalue = 0.03", fillcolor="#fffffe"] ;
116 -> 117 ;
118 [label="squared_error = 0.0\nsamples = 1\nvalue = 0.03", fillcolor="#fffffe"] ;
117 -> 118 ;
119 [label="avg_inclination <= 0.12\nsquared_error = 0.0\nsamples = 2\nvalue = 0.03", fillcolor="#fffffe"] ;
117 -> 119 ;
120 [label="squared_error = 0.0\nsamples = 1\nvalue = 0.03", fillcolor="#fffffe"] ;
119 -> 120 ;
121 [label="squared_error = -0.0\nsamples = 1\nvalue = 0.03", fillcolor="#fffffe"] ;
119 -> 121 ;
122 [label="squared_error = -0.0\nsamples = 1\nvalue = 0.04", fillcolor="#fffffe"] ;
116 -> 122 ;
123 [label="squared_error = 0.0\nsamples = 1\nvalue = 0.01", fillcolor="#ffffff"] ;
115 -> 123 ;
124 [label="ffmc <= 0.97\nsquared_error = 0.0\nsamples = 3\nvalue = 0.05", fillcolor="#fffefe"] ;
106 -> 124 ;
125 [label="squared_error = -0.0\nsamples = 2\nvalue = 0.05", fillcolor="#fffefe"] ;
124 -> 125 ;
126 [label="squared_error = 0.0\nsamples = 1\nvalue = 0.05", fillcolor="#fffefe"] ;
124 -> 126 ;
127 [label="rvdendity <= 0.11\nsquared_error = 0.0\nsamples = 7\nvalue = 0.01", fillcolor="#ffffff"] ;
105 -> 127 ;
128 [label="duration <= 0.0\nsquared_error = 0.0\nsamples = 4\nvalue = 0.0", fillcolor="#ffffff"] ;
127 -> 128 ;
129 [label="avg_altitude <= 0.41\nsquared_error = 0.0\nsamples = 3\nvalue = 0.0", fillcolor="#ffffff"] ;
128 -> 129 ;
130 [label="duration <= 0.0\nsquared_error = 0.0\nsamples = 2\nvalue = 0.0", fillcolor="#ffffff"] ;
129 -> 130 ;
131 [label="squared_error = 0.0\nsamples = 1\nvalue = 0.0", fillcolor="#ffffff"] ;
130 -> 131 ;
132 [label="squared_error = 0.0\nsamples = 1\nvalue = 0.0", fillcolor="#ffffff"] ;
130 -> 132 ;
133 [label="squared_error = 0.0\nsamples = 1\nvalue = 0.0", fillcolor="#ffffff"] ;
129 -> 133 ;
134 [label="squared_error = 0.0\nsamples = 1\nvalue = 0.01", fillcolor="#ffffff"] ;
128 -> 134 ;
135 [label="rvdendity <= 0.11\nsquared_error = 0.0\nsamples = 3\nvalue = 0.01", fillcolor="#ffffff"] ;
127 -> 135 ;
136 [label="squared_error = 0.0\nsamples = 1\nvalue = 0.01", fillcolor="#ffffff"] ;
135 -> 136 ;
137 [label="squared_error = 0.0\nsamples = 2\nvalue = 0.01", fillcolor="#ffffff"] ;
135 -> 137 ;
138 [label="wind_intensity <= 0.34\nsquared_error = 0.0\nsamples = 2\nvalue = 0.16", fillcolor="#fffdfc"] ;
102 -> 138 ;
139 [label="squared_error = 0.0\nsamples = 1\nvalue = 0.13", fillcolor="#fffdfc"] ;
138 -> 139 ;
140 [label="squared_error = 0.0\nsamples = 1\nvalue = 0.18", fillcolor="#fffdfb"] ;
138 -> 140 ;
141 [label="rvdendity <= 0.09\nsquared_error = 0.01\nsamples = 3\nvalue = 0.18", fillcolor="#fffdfb"] ;
101 -> 141 ;
142 [label="dmc <= 0.45\nsquared_error = 0.0\nsamples = 2\nvalue = 0.24", fillcolor="#fefcfa"] ;
141 -> 142 ;
143 [label="squared_error = 0.0\nsamples = 1\nvalue = 0.26", fillcolor="#fefcfa"] ;
142 -> 143 ;
144 [label="squared_error = -0.0\nsamples = 1\nvalue = 0.22", fillcolor="#fefcfa"] ;
142 -> 144 ;
145 [label="squared_error = 0.0\nsamples = 1\nvalue = 0.01", fillcolor="#ffffff"] ;
141 -> 145 ;
146 [label="squared_error = 0.0\nsamples = 1\nvalue = 0.58", fillcolor="#fdf7f3"] ;
100 -> 146 ;
147 [label="squared_error = -0.0\nsamples = 1\nvalue = 0.69", fillcolor="#fdf6f1"] ;
77 -> 147 ;
148 [label="lat <= 0.87\nsquared_error = 0.04\nsamples = 363\nvalue = 0.11", fillcolor="#fffefd"] ;
66 -> 148 ;
149 [label="avg_altitude <= 0.35\nsquared_error = 0.04\nsamples = 353\nvalue = 0.1", fillcolor="#fffefd"] ;
148 -> 149 ;
150 [label="avg_inclination <= 0.08\nsquared_error = 0.08\nsamples = 94\nvalue = 0.18", fillcolor="#fffdfb"] ;
149 -> 150 ;
151 [label="squared_error = 0.0\nsamples = 1\nvalue = 1.38", fillcolor="#fbede3"] ;
150 -> 151 ;
152 [label="duration <= 0.0\nsquared_error = 0.06\nsamples = 93\nvalue = 0.16", fillcolor="#fffdfc"] ;
150 -> 152 ;
153 [label="lon <= 0.82\nsquared_error = 0.02\nsamples = 34\nvalue = 0.08", fillcolor="#fffefd"] ;
152 -> 153 ;
154 [label="precipitation <= 0.06\nsquared_error = 0.01\nsamples = 33\nvalue = 0.06", fillcolor="#fffefe"] ;
153 -> 154 ;
155 [label="dmc <= 0.08\nsquared_error = 0.01\nsamples = 30\nvalue = 0.04", fillcolor="#fffefe"] ;
154 -> 155 ;
156 [label="squared_error = 0.0\nsamples = 1\nvalue = 0.26", fillcolor="#fefcfa"] ;
155 -> 156 ;
157 [label="wind_intensity <= 0.57\nsquared_error = 0.0\nsamples = 29\nvalue = 0.04", fillcolor="#fffffe"] ;
155 -> 157 ;
158 [label="isi <= 0.49\nsquared_error = 0.0\nsamples = 17\nvalue = 0.01", fillcolor="#ffffff"] ;
157 -> 158 ;
159 [label="cosn5variety <= 0.61\nsquared_error = 0.0\nsamples = 16\nvalue = 0.01", fillcolor="#ffffff"] ;
158 -> 159 ;
160 [label="doy <= 0.79\nsquared_error = 0.0\nsamples = 14\nvalue = 0.01", fillcolor="#ffffff"] ;
159 -> 160 ;
161 [label="isi <= 0.46\nsquared_error = 0.0\nsamples = 11\nvalue = 0.01", fillcolor="#ffffff"] ;
160 -> 161 ;
162 [label="duration <= 0.0\nsquared_error = 0.0\nsamples = 9\nvalue = 0.01", fillcolor="#ffffff"] ;
161 -> 162 ;
163 [label="relative_humidity <= 0.51\nsquared_error = 0.0\nsamples = 6\nvalue = 0.01", fillcolor="#ffffff"] ;
162 -> 163 ;
164 [label="dmc <= 0.42\nsquared_error = 0.0\nsamples = 5\nvalue = 0.01", fillcolor="#ffffff"] ;
163 -> 164 ;
165 [label="squared_error = -0.0\nsamples = 4\nvalue = 0.01", fillcolor="#ffffff"] ;
164 -> 165 ;
166 [label="squared_error = 0.0\nsamples = 1\nvalue = 0.01", fillcolor="#ffffff"] ;
164 -> 166 ;
167 [label="squared_error = -0.0\nsamples = 1\nvalue = 0.0", fillcolor="#ffffff"] ;
163 -> 167 ;
168 [label="lat <= 0.82\nsquared_error = 0.0\nsamples = 3\nvalue = 0.02", fillcolor="#ffffff"] ;
162 -> 168 ;
169 [label="squared_error = 0.0\nsamples = 2\nvalue = 0.02", fillcolor="#ffffff"] ;
168 -> 169 ;
170 [label="squared_error = 0.0\nsamples = 1\nvalue = 0.01", fillcolor="#ffffff"] ;
168 -> 170 ;
171 [label="isi <= 0.47\nsquared_error = 0.0\nsamples = 2\nvalue = 0.0", fillcolor="#ffffff"] ;
161 -> 171 ;
172 [label="squared_error = 0.0\nsamples = 1\nvalue = 0.0", fillcolor="#ffffff"] ;
171 -> 172 ;
173 [label="squared_error = 0.0\nsamples = 1\nvalue = 0.0", fillcolor="#ffffff"] ;
171 -> 173 ;
174 [label="rvdendity <= 0.09\nsquared_error = 0.0\nsamples = 3\nvalue = 0.0", fillcolor="#ffffff"] ;
160 -> 174 ;
175 [label="cosn5variety <= 0.41\nsquared_error = 0.0\nsamples = 2\nvalue = 0.0", fillcolor="#ffffff"] ;
174 -> 175 ;
176 [label="squared_error = 0.0\nsamples = 1\nvalue = 0.0", fillcolor="#ffffff"] ;
175 -> 176 ;
177 [label="squared_error = 0.0\nsamples = 1\nvalue = 0.0", fillcolor="#ffffff"] ;
175 -> 177 ;
178 [label="squared_error = 0.0\nsamples = 1\nvalue = 0.0", fillcolor="#ffffff"] ;
174 -> 178 ;
179 [label="dc <= 0.41\nsquared_error = 0.0\nsamples = 2\nvalue = 0.05", fillcolor="#fffefe"] ;
159 -> 179 ;
180 [label="squared_error = 0.0\nsamples = 1\nvalue = 0.07", fillcolor="#fffefe"] ;
179 -> 180 ;
181 [label="squared_error = -0.0\nsamples = 1\nvalue = 0.02", fillcolor="#ffffff"] ;
179 -> 181 ;
182 [label="squared_error = 0.0\nsamples = 1\nvalue = 0.1", fillcolor="#fffefd"] ;
158 -> 182 ;
183 [label="duration <= 0.0\nsquared_error = 0.01\nsamples = 12\nvalue = 0.08", fillcolor="#fffefd"] ;
157 -> 183 ;
184 [label="squared_error = 0.0\nsamples = 2\nvalue = 0.26", fillcolor="#fefcfa"] ;
183 -> 184 ;
185 [label="avg_inclination <= 0.26\nsquared_error = 0.0\nsamples = 10\nvalue = 0.05", fillcolor="#fffefe"] ;
183 -> 185 ;
186 [label="lat <= 0.47\nsquared_error = 0.0\nsamples = 4\nvalue = 0.11", fillcolor="#fffefd"] ;
185 -> 186 ;
187 [label="relative_humidity <= 0.4\nsquared_error = 0.0\nsamples = 2\nvalue = 0.07", fillcolor="#fffefe"] ;
186 -> 187 ;
188 [label="squared_error = 0.0\nsamples = 1\nvalue = 0.02", fillcolor="#ffffff"] ;
187 -> 188 ;
189 [label="squared_error = 0.0\nsamples = 1\nvalue = 0.1", fillcolor="#fffefd"] ;
187 -> 189 ;
190 [label="squared_error = -0.0\nsamples = 2\nvalue = 0.18", fillcolor="#fffdfb"] ;
186 -> 190 ;
191 [label="rvdendity <= 0.05\nsquared_error = 0.0\nsamples = 6\nvalue = 0.01", fillcolor="#ffffff"] ;
185 -> 191 ;
192 [label="squared_error = 0.0\nsamples = 1\nvalue = 0.05", fillcolor="#fffefe"] ;
191 -> 192 ;
193 [label="lon <= 0.73\nsquared_error = 0.0\nsamples = 5\nvalue = 0.01", fillcolor="#ffffff"] ;
191 -> 193 ;
194 [label="duration <= 0.0\nsquared_error = 0.0\nsamples = 3\nvalue = 0.01", fillcolor="#ffffff"] ;
193 -> 194 ;
195 [label="squared_error = 0.0\nsamples = 2\nvalue = 0.01", fillcolor="#ffffff"] ;
194 -> 195 ;
196 [label="squared_error = -0.0\nsamples = 1\nvalue = 0.02", fillcolor="#ffffff"] ;
194 -> 196 ;
197 [label="dmc <= 0.52\nsquared_error = 0.0\nsamples = 2\nvalue = 0.0", fillcolor="#ffffff"] ;
193 -> 197 ;
198 [label="squared_error = 0.0\nsamples = 1\nvalue = 0.0", fillcolor="#ffffff"] ;
197 -> 198 ;
199 [label="squared_error = 0.0\nsamples = 1\nvalue = 0.0", fillcolor="#ffffff"] ;
197 -> 199 ;
200 [label="precipitation <= 0.62\nsquared_error = 0.01\nsamples = 3\nvalue = 0.37", fillcolor="#fefaf7"] ;
154 -> 200 ;
201 [label="avg_inclination <= 0.29\nsquared_error = 0.0\nsamples = 2\nvalue = 0.31", fillcolor="#fefbf9"] ;
200 -> 201 ;
202 [label="squared_error = 0.0\nsamples = 1\nvalue = 0.36", fillcolor="#fefaf8"] ;
201 -> 202 ;
203 [label="squared_error = 0.0\nsamples = 1\nvalue = 0.26", fillcolor="#fefcfa"] ;
201 -> 203 ;
204 [label="squared_error = 0.0\nsamples = 1\nvalue = 0.5", fillcolor="#fef8f5"] ;
200 -> 204 ;
205 [label="squared_error = 0.0\nsamples = 1\nvalue = 0.44", fillcolor="#fef9f6"] ;
153 -> 205 ;
206 [label="isi <= 0.44\nsquared_error = 0.08\nsamples = 59\nvalue = 0.21", fillcolor="#fefcfb"] ;
152 -> 206 ;
207 [label="lon <= 0.59\nsquared_error = 0.04\nsamples = 43\nvalue = 0.16", fillcolor="#fffdfc"] ;
206 -> 207 ;
208 [label="avg_inclination <= 0.13\nsquared_error = 0.01\nsamples = 22\nvalue = 0.05", fillcolor="#fffefe"] ;
207 -> 208 ;
209 [label="squared_error = 0.0\nsamples = 1\nvalue = 0.59", fillcolor="#fdf7f3"] ;
208 -> 209 ;
210 [label="avg_inclination <= 0.43\nsquared_error = 0.0\nsamples = 21\nvalue = 0.03", fillcolor="#fffffe"] ;
208 -> 210 ;
211 [label="dc <= 0.73\nsquared_error = 0.0\nsamples = 16\nvalue = 0.01", fillcolor="#ffffff"] ;
210 -> 211 ;
212 [label="dc <= 0.24\nsquared_error = 0.0\nsamples = 15\nvalue = 0.01", fillcolor="#ffffff"] ;
211 -> 212 ;
213 [label="squared_error = 0.0\nsamples = 3\nvalue = 0.02", fillcolor="#ffffff"] ;
212 -> 213 ;
214 [label="avg_inclination <= 0.17\nsquared_error = 0.0\nsamples = 12\nvalue = 0.01", fillcolor="#ffffff"] ;
212 -> 214 ;
215 [label="squared_error = 0.0\nsamples = 1\nvalue = 0.02", fillcolor="#ffffff"] ;
214 -> 215 ;
216 [label="cosn5variety <= 0.28\nsquared_error = 0.0\nsamples = 11\nvalue = 0.01", fillcolor="#ffffff"] ;
214 -> 216 ;
217 [label="squared_error = 0.0\nsamples = 2\nvalue = 0.01", fillcolor="#ffffff"] ;
216 -> 217 ;
218 [label="rvdendity <= 0.09\nsquared_error = 0.0\nsamples = 9\nvalue = 0.0", fillcolor="#ffffff"] ;
216 -> 218 ;
219 [label="duration <= 0.0\nsquared_error = 0.0\nsamples = 5\nvalue = 0.01", fillcolor="#ffffff"] ;
218 -> 219 ;
220 [label="rvdendity <= 0.08\nsquared_error = 0.0\nsamples = 3\nvalue = 0.01", fillcolor="#ffffff"] ;
219 -> 220 ;
221 [label="squared_error = -0.0\nsamples = 2\nvalue = 0.0", fillcolor="#ffffff"] ;
220 -> 221 ;
222 [label="squared_error = 0.0\nsamples = 1\nvalue = 0.01", fillcolor="#ffffff"] ;
220 -> 222 ;
223 [label="rvdendity <= 0.05\nsquared_error = 0.0\nsamples = 2\nvalue = 0.01", fillcolor="#ffffff"] ;
219 -> 223 ;
224 [label="squared_error = 0.0\nsamples = 1\nvalue = 0.01", fillcolor="#ffffff"] ;
223 -> 224 ;
225 [label="squared_error = -0.0\nsamples = 1\nvalue = 0.01", fillcolor="#ffffff"] ;
223 -> 225 ;
226 [label="wind_intensity <= 0.44\nsquared_error = 0.0\nsamples = 4\nvalue = 0.0", fillcolor="#ffffff"] ;
218 -> 226 ;
227 [label="squared_error = 0.0\nsamples = 1\nvalue = 0.0", fillcolor="#ffffff"] ;
226 -> 227 ;
228 [label="wind_intensity <= 0.64\nsquared_error = 0.0\nsamples = 3\nvalue = 0.0", fillcolor="#ffffff"] ;
226 -> 228 ;
229 [label="squared_error = 0.0\nsamples = 1\nvalue = 0.0", fillcolor="#ffffff"] ;
228 -> 229 ;
230 [label="squared_error = 0.0\nsamples = 2\nvalue = 0.0", fillcolor="#ffffff"] ;
228 -> 230 ;
231 [label="squared_error = -0.0\nsamples = 1\nvalue = 0.03", fillcolor="#fffffe"] ;
211 -> 231 ;
232 [label="avg_inclination <= 0.48\nsquared_error = 0.0\nsamples = 5\nvalue = 0.09", fillcolor="#fffefd"] ;
210 -> 232 ;
233 [label="avg_inclination <= 0.45\nsquared_error = 0.0\nsamples = 2\nvalue = 0.13", fillcolor="#fffdfc"] ;
232 -> 233 ;
234 [label="squared_error = 0.0\nsamples = 1\nvalue = 0.12", fillcolor="#fffdfd"] ;
233 -> 234 ;
235 [label="squared_error = 0.0\nsamples = 1\nvalue = 0.13", fillcolor="#fffdfc"] ;
233 -> 235 ;
236 [label="lat <= 0.77\nsquared_error = 0.0\nsamples = 3\nvalue = 0.07", fillcolor="#fffefe"] ;
232 -> 236 ;
237 [label="squared_error = 0.0\nsamples = 1\nvalue = 0.04", fillcolor="#fffefe"] ;
236 -> 237 ;
238 [label="squared_error = 0.0\nsamples = 2\nvalue = 0.08", fillcolor="#fffefd"] ;
236 -> 238 ;
239 [label="avg_inclination <= 0.4\nsquared_error = 0.05\nsamples = 21\nvalue = 0.25", fillcolor="#fefcfa"] ;
207 -> 239 ;
240 [label="isi <= 0.35\nsquared_error = 0.03\nsamples = 14\nvalue = 0.16", fillcolor="#fffdfc"] ;
239 -> 240 ;
241 [label="ffmc <= 0.85\nsquared_error = 0.03\nsamples = 6\nvalue = 0.29", fillcolor="#fefbf9"] ;
240 -> 241 ;
242 [label="isi <= 0.2\nsquared_error = 0.0\nsamples = 3\nvalue = 0.12", fillcolor="#fffdfd"] ;
241 -> 242 ;
243 [label="squared_error = 0.0\nsamples = 1\nvalue = 0.17", fillcolor="#fffdfc"] ;
242 -> 243 ;
244 [label="avg_inclination <= 0.17\nsquared_error = 0.0\nsamples = 2\nvalue = 0.05", fillcolor="#fffefe"] ;
242 -> 244 ;
245 [label="squared_error = 0.0\nsamples = 1\nvalue = 0.1", fillcolor="#fffefd"] ;
244 -> 245 ;
246 [label="squared_error = -0.0\nsamples = 1\nvalue = 0.01", fillcolor="#ffffff"] ;
244 -> 246 ;
247 [label="isi <= 0.28\nsquared_error = 0.0\nsamples = 3\nvalue = 0.46", fillcolor="#fef9f6"] ;
241 -> 247 ;
248 [label="squared_error = 0.0\nsamples = 1\nvalue = 0.41", fillcolor="#fefaf7"] ;
247 -> 248 ;
249 [label="lon <= 0.68\nsquared_error = 0.0\nsamples = 2\nvalue = 0.53", fillcolor="#fef8f4"] ;
247 -> 249 ;
250 [label="squared_error = 0.0\nsamples = 1\nvalue = 0.49", fillcolor="#fef9f5"] ;
249 -> 250 ;
251 [label="squared_error = 0.0\nsamples = 1\nvalue = 0.56", fillcolor="#fdf8f4"] ;
249 -> 251 ;
252 [label="dmc <= 0.08\nsquared_error = 0.01\nsamples = 8\nvalue = 0.07", fillcolor="#fffefe"] ;
240 -> 252 ;
253 [label="squared_error = 0.0\nsamples = 1\nvalue = 0.26", fillcolor="#fefcfa"] ;
252 -> 253 ;
254 [label="ffmc <= 0.91\nsquared_error = 0.0\nsamples = 7\nvalue = 0.03", fillcolor="#fffffe"] ;
252 -> 254 ;
255 [label="relative_humidity <= 0.43\nsquared_error = 0.0\nsamples = 4\nvalue = 0.01", fillcolor="#ffffff"] ;
254 -> 255 ;
256 [label="squared_error = 0.0\nsamples = 1\nvalue = 0.01", fillcolor="#ffffff"] ;
255 -> 256 ;
257 [label="squared_error = 0.0\nsamples = 3\nvalue = 0.01", fillcolor="#ffffff"] ;
255 -> 257 ;
258 [label="ffmc <= 0.93\nsquared_error = 0.0\nsamples = 3\nvalue = 0.07", fillcolor="#fffefe"] ;
254 -> 258 ;
259 [label="dc <= 0.54\nsquared_error = 0.0\nsamples = 2\nvalue = 0.08", fillcolor="#fffefd"] ;
258 -> 259 ;
260 [label="squared_error = 0.0\nsamples = 1\nvalue = 0.08", fillcolor="#fffefd"] ;
259 -> 260 ;
261 [label="squared_error = 0.0\nsamples = 1\nvalue = 0.1", fillcolor="#fffefd"] ;
259 -> 261 ;
262 [label="squared_error = 0.0\nsamples = 1\nvalue = 0.03", fillcolor="#fffffe"] ;
258 -> 262 ;
263 [label="avg_inclination <= 0.51\nsquared_error = 0.03\nsamples = 7\nvalue = 0.41", fillcolor="#fefaf7"] ;
239 -> 263 ;
264 [label="dmc <= 0.3\nsquared_error = 0.01\nsamples = 5\nvalue = 0.47", fillcolor="#fef9f5"] ;
263 -> 264 ;
265 [label="dmc <= 0.22\nsquared_error = 0.0\nsamples = 3\nvalue = 0.4", fillcolor="#fefaf7"] ;
264 -> 265 ;
266 [label="squared_error = 0.0\nsamples = 2\nvalue = 0.41", fillcolor="#fefaf7"] ;
265 -> 266 ;
267 [label="squared_error = 0.0\nsamples = 1\nvalue = 0.39", fillcolor="#fefaf7"] ;
265 -> 267 ;
268 [label="wind_intensity <= 0.45\nsquared_error = 0.0\nsamples = 2\nvalue = 0.65", fillcolor="#fdf7f2"] ;
264 -> 268 ;
269 [label="squared_error = 0.0\nsamples = 1\nvalue = 0.69", fillcolor="#fdf6f1"] ;
268 -> 269 ;
270 [label="squared_error = 0.0\nsamples = 1\nvalue = 0.57", fillcolor="#fdf8f3"] ;
268 -> 270 ;
271 [label="duration <= 0.0\nsquared_error = 0.0\nsamples = 2\nvalue = 0.09", fillcolor="#fffefd"] ;
263 -> 271 ;
272 [label="squared_error = 0.0\nsamples = 1\nvalue = 0.06", fillcolor="#fffefe"] ;
271 -> 272 ;
273 [label="squared_error = -0.0\nsamples = 1\nvalue = 0.12", fillcolor="#fffdfc"] ;
271 -> 273 ;
274 [label="duration <= 0.0\nsquared_error = 0.18\nsamples = 16\nvalue = 0.36", fillcolor="#fefaf8"] ;
206 -> 274 ;
275 [label="rvdendity <= 0.09\nsquared_error = 0.22\nsamples = 5\nvalue = 0.77", fillcolor="#fdf5ef"] ;
274 -> 275 ;
276 [label="lon <= 0.75\nsquared_error = 0.1\nsamples = 4\nvalue = 0.62", fillcolor="#fdf7f2"] ;
275 -> 276 ;
277 [label="dc <= 0.54\nsquared_error = 0.03\nsamples = 3\nvalue = 0.74", fillcolor="#fdf5f0"] ;
276 -> 277 ;
278 [label="avg_altitude <= 0.34\nsquared_error = 0.01\nsamples = 2\nvalue = 0.86", fillcolor="#fdf4ed"] ;
277 -> 278 ;
279 [label="squared_error = 0.0\nsamples = 1\nvalue = 0.75", fillcolor="#fdf5f0"] ;
278 -> 279 ;
280 [label="squared_error = 0.0\nsamples = 1\nvalue = 0.92", fillcolor="#fdf3ec"] ;
278 -> 280 ;
281 [label="squared_error = 0.0\nsamples = 1\nvalue = 0.56", fillcolor="#fdf8f4"] ;
277 -> 281 ;
282 [label="squared_error = 0.0\nsamples = 1\nvalue = 0.0", fillcolor="#ffffff"] ;
276 -> 282 ;
283 [label="squared_error = -0.0\nsamples = 1\nvalue = 1.66", fillcolor="#fbe9dd"] ;
275 -> 283 ;
284 [label="avg_inclination <= 0.45\nsquared_error = 0.01\nsamples = 11\nvalue = 0.12", fillcolor="#fffdfc"] ;
274 -> 284 ;
285 [label="rvdendity <= 0.09\nsquared_error = 0.01\nsamples = 7\nvalue = 0.18", fillcolor="#fffdfb"] ;
284 -> 285 ;
286 [label="avg_altitude <= 0.31\nsquared_error = 0.0\nsamples = 4\nvalue = 0.24", fillcolor="#fefcfa"] ;
285 -> 286 ;
287 [label="squared_error = 0.0\nsamples = 1\nvalue = 0.36", fillcolor="#fefaf8"] ;
286 -> 287 ;
288 [label="lat <= 0.39\nsquared_error = 0.0\nsamples = 3\nvalue = 0.21", fillcolor="#fefcfb"] ;
286 -> 288 ;
289 [label="squared_error = 0.0\nsamples = 1\nvalue = 0.25", fillcolor="#fefcfa"] ;
288 -> 289 ;
290 [label="lat <= 0.57\nsquared_error = 0.0\nsamples = 2\nvalue = 0.2", fillcolor="#fefcfb"] ;
288 -> 290 ;
291 [label="squared_error = 0.0\nsamples = 1\nvalue = 0.17", fillcolor="#fffdfb"] ;
290 -> 291 ;
292 [label="squared_error = 0.0\nsamples = 1\nvalue = 0.21", fillcolor="#fefcfb"] ;
290 -> 292 ;
293 [label="rvdendity <= 0.09\nsquared_error = 0.0\nsamples = 3\nvalue = 0.08", fillcolor="#fffefd"] ;
285 -> 293 ;
294 [label="squared_error = 0.0\nsamples = 1\nvalue = 0.04", fillcolor="#fffefe"] ;
293 -> 294 ;
295 [label="squared_error = 0.0\nsamples = 2\nvalue = 0.1", fillcolor="#fffefd"] ;
293 -> 295 ;
296 [label="cosn5variety <= 0.52\nsquared_error = 0.0\nsamples = 4\nvalue = 0.02", fillcolor="#ffffff"] ;
284 -> 296 ;
297 [label="doy <= 0.5\nsquared_error = 0.0\nsamples = 3\nvalue = 0.01", fillcolor="#ffffff"] ;
296 -> 297 ;
298 [label="squared_error = 0.0\nsamples = 1\nvalue = 0.0", fillcolor="#ffffff"] ;
297 -> 298 ;
299 [label="isi <= 0.51\nsquared_error = 0.0\nsamples = 2\nvalue = 0.02", fillcolor="#ffffff"] ;
297 -> 299 ;
300 [label="squared_error = 0.0\nsamples = 1\nvalue = 0.01", fillcolor="#ffffff"] ;
299 -> 300 ;
301 [label="squared_error = 0.0\nsamples = 1\nvalue = 0.02", fillcolor="#ffffff"] ;
299 -> 301 ;
302 [label="squared_error = 0.0\nsamples = 1\nvalue = 0.04", fillcolor="#fffefe"] ;
296 -> 302 ;
303 [label="dmc <= 0.05\nsquared_error = 0.02\nsamples = 259\nvalue = 0.08", fillcolor="#fffefd"] ;
149 -> 303 ;
304 [label="lon <= 0.81\nsquared_error = 0.08\nsamples = 14\nvalue = 0.21", fillcolor="#fefcfb"] ;
303 -> 304 ;
305 [label="avg_inclination <= 0.16\nsquared_error = 0.03\nsamples = 12\nvalue = 0.14", fillcolor="#fffdfc"] ;
304 -> 305 ;
306 [label="avg_inclination <= 0.07\nsquared_error = 0.02\nsamples = 4\nvalue = 0.34", fillcolor="#fefbf8"] ;
305 -> 306 ;
307 [label="squared_error = 0.0\nsamples = 1\nvalue = 0.18", fillcolor="#fffdfb"] ;
306 -> 307 ;
308 [label="cosn5variety <= 0.5\nsquared_error = 0.0\nsamples = 3\nvalue = 0.44", fillcolor="#fef9f6"] ;
306 -> 308 ;
309 [label="squared_error = 0.0\nsamples = 1\nvalue = 0.41", fillcolor="#fefaf7"] ;
308 -> 309 ;
310 [label="ffmc <= 0.76\nsquared_error = 0.0\nsamples = 2\nvalue = 0.49", fillcolor="#fef9f5"] ;
308 -> 310 ;
311 [label="squared_error = 0.0\nsamples = 1\nvalue = 0.48", fillcolor="#fef9f5"] ;
310 -> 311 ;
312 [label="squared_error = 0.0\nsamples = 1\nvalue = 0.5", fillcolor="#fef8f5"] ;
310 -> 312 ;
313 [label="dmc <= 0.03\nsquared_error = 0.0\nsamples = 8\nvalue = 0.04", fillcolor="#fffffe"] ;
305 -> 313 ;
314 [label="dmc <= 0.03\nsquared_error = 0.0\nsamples = 2\nvalue = 0.01", fillcolor="#ffffff"] ;
313 -> 314 ;
315 [label="squared_error = 0.0\nsamples = 1\nvalue = 0.0", fillcolor="#ffffff"] ;
314 -> 315 ;
316 [label="squared_error = -0.0\nsamples = 1\nvalue = 0.01", fillcolor="#ffffff"] ;
314 -> 316 ;
317 [label="ffmc <= 0.86\nsquared_error = 0.0\nsamples = 6\nvalue = 0.06", fillcolor="#fffefe"] ;
313 -> 317 ;
318 [label="squared_error = 0.0\nsamples = 3\nvalue = 0.1", fillcolor="#fffefd"] ;
317 -> 318 ;
319 [label="wind_intensity <= 0.33\nsquared_error = 0.0\nsamples = 3\nvalue = 0.03", fillcolor="#fffffe"] ;
317 -> 319 ;
320 [label="squared_error = 0.0\nsamples = 1\nvalue = 0.01", fillcolor="#ffffff"] ;
319 -> 320 ;
321 [label="doy <= 0.39\nsquared_error = 0.0\nsamples = 2\nvalue = 0.04", fillcolor="#fffefe"] ;
319 -> 321 ;
322 [label="squared_error = 0.0\nsamples = 1\nvalue = 0.05", fillcolor="#fffefe"] ;
321 -> 322 ;
323 [label="squared_error = 0.0\nsamples = 1\nvalue = 0.04", fillcolor="#fffffe"] ;
321 -> 323 ;
324 [label="duration <= 0.0\nsquared_error = 0.24\nsamples = 2\nvalue = 0.7", fillcolor="#fdf6f1"] ;
304 -> 324 ;
325 [label="squared_error = 0.0\nsamples = 1\nvalue = 0.01", fillcolor="#ffffff"] ;
324 -> 325 ;
326 [label="squared_error = 0.0\nsamples = 1\nvalue = 1.05", fillcolor="#fcf1e9"] ;
324 -> 326 ;
327 [label="duration <= 0.0\nsquared_error = 0.02\nsamples = 245\nvalue = 0.07", fillcolor="#fffefe"] ;
303 -> 327 ;
328 [label="lon <= 0.28\nsquared_error = 0.02\nsamples = 238\nvalue = 0.06", fillcolor="#fffefe"] ;
327 -> 328 ;
329 [label="wind_intensity <= 0.47\nsquared_error = 0.06\nsamples = 3\nvalue = 0.33", fillcolor="#fefbf8"] ;
328 -> 329 ;
330 [label="squared_error = 0.0\nsamples = 1\nvalue = 0.01", fillcolor="#ffffff"] ;
329 -> 330 ;
331 [label="doy <= 0.71\nsquared_error = 0.01\nsamples = 2\nvalue = 0.5", fillcolor="#fef9f5"] ;
329 -> 331 ;
332 [label="squared_error = 0.0\nsamples = 1\nvalue = 0.59", fillcolor="#fdf7f3"] ;
331 -> 332 ;
333 [label="squared_error = 0.0\nsamples = 1\nvalue = 0.41", fillcolor="#fefaf7"] ;
331 -> 333 ;
334 [label="lon <= 0.66\nsquared_error = 0.01\nsamples = 235\nvalue = 0.06", fillcolor="#fffefe"] ;
328 -> 334 ;
335 [label="avg_altitude <= 0.7\nsquared_error = 0.0\nsamples = 120\nvalue = 0.04", fillcolor="#fffffe"] ;
334 -> 335 ;
336 [label="wind_intensity <= 0.75\nsquared_error = 0.0\nsamples = 118\nvalue = 0.03", fillcolor="#fffffe"] ;
335 -> 336 ;
337 [label="relative_humidity <= 0.46\nsquared_error = 0.0\nsamples = 116\nvalue = 0.03", fillcolor="#fffffe"] ;
336 -> 337 ;
338 [label="relative_humidity <= 0.4\nsquared_error = 0.01\nsamples = 80\nvalue = 0.04", fillcolor="#fffefe"] ;
337 -> 338 ;
339 [label="isi <= 0.17\nsquared_error = 0.0\nsamples = 57\nvalue = 0.03", fillcolor="#fffffe"] ;
338 -> 339 ;
340 [label="squared_error = 0.0\nsamples = 1\nvalue = 0.18", fillcolor="#fffdfb"] ;
339 -> 340 ;
341 [label="relative_humidity <= 0.34\nsquared_error = 0.0\nsamples = 56\nvalue = 0.03", fillcolor="#fffffe"] ;
339 -> 341 ;
342 [label="relative_humidity <= 0.34\nsquared_error = 0.0\nsamples = 37\nvalue = 0.04", fillcolor="#fffefe"] ;
341 -> 342 ;
343 [label="rvdendity <= 0.06\nsquared_error = 0.0\nsamples = 34\nvalue = 0.03", fillcolor="#fffffe"] ;
342 -> 343 ;
344 [label="squared_error = 0.0\nsamples = 1\nvalue = 0.21", fillcolor="#fefcfb"] ;
343 -> 344 ;
345 [label="rvdendity <= 0.11\nsquared_error = 0.0\nsamples = 33\nvalue = 0.03", fillcolor="#fffffe"] ;
343 -> 345 ;
346 [label="isi <= 0.58\nsquared_error = 0.0\nsamples = 30\nvalue = 0.03", fillcolor="#fffffe"] ;
345 -> 346 ;
347 [label="wind_intensity <= 0.69\nsquared_error = 0.0\nsamples = 28\nvalue = 0.02", fillcolor="#ffffff"] ;
346 -> 347 ;
348 [label="avg_inclination <= 0.4\nsquared_error = 0.0\nsamples = 27\nvalue = 0.02", fillcolor="#ffffff"] ;
347 -> 348 ;
349 [label="cosn5variety <= 0.69\nsquared_error = 0.0\nsamples = 26\nvalue = 0.02", fillcolor="#ffffff"] ;
348 -> 349 ;
350 [label="rvdendity <= 0.08\nsquared_error = 0.0\nsamples = 23\nvalue = 0.01", fillcolor="#ffffff"] ;
349 -> 350 ;
351 [label="lon <= 0.61\nsquared_error = 0.0\nsamples = 11\nvalue = 0.01", fillcolor="#ffffff"] ;
350 -> 351 ;
352 [label="cosn5variety <= 0.39\nsquared_error = 0.0\nsamples = 10\nvalue = 0.0", fillcolor="#ffffff"] ;
351 -> 352 ;
353 [label="squared_error = 0.0\nsamples = 2\nvalue = 0.01", fillcolor="#ffffff"] ;
352 -> 353 ;
354 [label="duration <= 0.0\nsquared_error = 0.0\nsamples = 8\nvalue = 0.0", fillcolor="#ffffff"] ;
352 -> 354 ;
355 [label="lon <= 0.58\nsquared_error = 0.0\nsamples = 6\nvalue = 0.0", fillcolor="#ffffff"] ;
354 -> 355 ;
356 [label="squared_error = 0.0\nsamples = 1\nvalue = 0.0", fillcolor="#ffffff"] ;
355 -> 356 ;
357 [label="lat <= 0.33\nsquared_error = 0.0\nsamples = 5\nvalue = 0.0", fillcolor="#ffffff"] ;
355 -> 357 ;
358 [label="squared_error = 0.0\nsamples = 1\nvalue = 0.0", fillcolor="#ffffff"] ;
357 -> 358 ;
359 [label="squared_error = 0.0\nsamples = 4\nvalue = 0.0", fillcolor="#ffffff"] ;
357 -> 359 ;
360 [label="avg_inclination <= 0.2\nsquared_error = 0.0\nsamples = 2\nvalue = 0.01", fillcolor="#ffffff"] ;
354 -> 360 ;
361 [label="squared_error = 0.0\nsamples = 1\nvalue = 0.01", fillcolor="#ffffff"] ;
360 -> 361 ;
362 [label="squared_error = -0.0\nsamples = 1\nvalue = 0.0", fillcolor="#ffffff"] ;
360 -> 362 ;
363 [label="squared_error = 0.0\nsamples = 1\nvalue = 0.05", fillcolor="#fffefe"] ;
351 -> 363 ;
364 [label="cosn5variety <= 0.55\nsquared_error = 0.0\nsamples = 12\nvalue = 0.02", fillcolor="#fffffe"] ;
350 -> 364 ;
365 [label="dc <= 0.53\nsquared_error = 0.0\nsamples = 10\nvalue = 0.02", fillcolor="#ffffff"] ;
364 -> 365 ;
366 [label="dc <= 0.5\nsquared_error = 0.0\nsamples = 4\nvalue = 0.03", fillcolor="#fffffe"] ;
365 -> 366 ;
367 [label="wind_intensity <= 0.5\nsquared_error = 0.0\nsamples = 3\nvalue = 0.03", fillcolor="#fffffe"] ;
366 -> 367 ;
368 [label="squared_error = 0.0\nsamples = 1\nvalue = 0.02", fillcolor="#ffffff"] ;
367 -> 368 ;
369 [label="squared_error = -0.0\nsamples = 2\nvalue = 0.03", fillcolor="#fffffe"] ;
367 -> 369 ;
370 [label="squared_error = -0.0\nsamples = 1\nvalue = 0.05", fillcolor="#fffefe"] ;
366 -> 370 ;
371 [label="rvdendity <= 0.1\nsquared_error = 0.0\nsamples = 6\nvalue = 0.01", fillcolor="#ffffff"] ;
365 -> 371 ;
372 [label="avg_altitude <= 0.46\nsquared_error = 0.0\nsamples = 3\nvalue = 0.0", fillcolor="#ffffff"] ;
371 -> 372 ;
373 [label="squared_error = 0.0\nsamples = 1\nvalue = 0.0", fillcolor="#ffffff"] ;
372 -> 373 ;
374 [label="dmc <= 0.47\nsquared_error = 0.0\nsamples = 2\nvalue = 0.0", fillcolor="#ffffff"] ;
372 -> 374 ;
375 [label="squared_error = 0.0\nsamples = 1\nvalue = 0.0", fillcolor="#ffffff"] ;
374 -> 375 ;
376 [label="squared_error = -0.0\nsamples = 1\nvalue = 0.0", fillcolor="#ffffff"] ;
374 -> 376 ;
377 [label="squared_error = 0.0\nsamples = 3\nvalue = 0.01", fillcolor="#ffffff"] ;
371 -> 377 ;
378 [label="duration <= 0.0\nsquared_error = 0.0\nsamples = 2\nvalue = 0.07", fillcolor="#fffefe"] ;
364 -> 378 ;
379 [label="squared_error = 0.0\nsamples = 1\nvalue = 0.04", fillcolor="#fffefe"] ;
378 -> 379 ;
380 [label="squared_error = 0.0\nsamples = 1\nvalue = 0.1", fillcolor="#fffefd"] ;
378 -> 380 ;
381 [label="relative_humidity <= 0.3\nsquared_error = 0.0\nsamples = 3\nvalue = 0.04", fillcolor="#fffefe"] ;
349 -> 381 ;
382 [label="squared_error = 0.0\nsamples = 1\nvalue = 0.05", fillcolor="#fffefe"] ;
381 -> 382 ;
383 [label="doy <= 0.63\nsquared_error = 0.0\nsamples = 2\nvalue = 0.03", fillcolor="#fffffe"] ;
381 -> 383 ;
384 [label="squared_error = 0.0\nsamples = 1\nvalue = 0.03", fillcolor="#fffffe"] ;
383 -> 384 ;
385 [label="squared_error = 0.0\nsamples = 1\nvalue = 0.04", fillcolor="#fffffe"] ;
383 -> 385 ;
386 [label="squared_error = 0.0\nsamples = 1\nvalue = 0.1", fillcolor="#fffefd"] ;
348 -> 386 ;
387 [label="squared_error = 0.0\nsamples = 1\nvalue = 0.14", fillcolor="#fffdfc"] ;
347 -> 387 ;
388 [label="cosn5variety <= 0.54\nsquared_error = 0.0\nsamples = 2\nvalue = 0.11", fillcolor="#fffefd"] ;
346 -> 388 ;
389 [label="squared_error = 0.0\nsamples = 1\nvalue = 0.12", fillcolor="#fffdfc"] ;
388 -> 389 ;
390 [label="squared_error = -0.0\nsamples = 1\nvalue = 0.1", fillcolor="#fffefd"] ;
388 -> 390 ;
391 [label="relative_humidity <= 0.21\nsquared_error = 0.0\nsamples = 3\nvalue = 0.09", fillcolor="#fffefd"] ;
345 -> 391 ;
392 [label="squared_error = 0.0\nsamples = 1\nvalue = 0.02", fillcolor="#ffffff"] ;
391 -> 392 ;
393 [label="duration <= 0.0\nsquared_error = 0.0\nsamples = 2\nvalue = 0.11", fillcolor="#fffefd"] ;
391 -> 393 ;
394 [label="squared_error = 0.0\nsamples = 1\nvalue = 0.1", fillcolor="#fffefd"] ;
393 -> 394 ;
395 [label="squared_error = 0.0\nsamples = 1\nvalue = 0.14", fillcolor="#fffdfc"] ;
393 -> 395 ;
396 [label="lon <= 0.6\nsquared_error = 0.03\nsamples = 3\nvalue = 0.18", fillcolor="#fffdfb"] ;
342 -> 396 ;
397 [label="lon <= 0.57\nsquared_error = 0.0\nsamples = 2\nvalue = 0.07", fillcolor="#fffefe"] ;
396 -> 397 ;
398 [label="squared_error = 0.0\nsamples = 1\nvalue = 0.1", fillcolor="#fffefd"] ;
397 -> 398 ;
399 [label="squared_error = 0.0\nsamples = 1\nvalue = 0.04", fillcolor="#fffefe"] ;
397 -> 399 ;
400 [label="squared_error = 0.0\nsamples = 1\nvalue = 0.41", fillcolor="#fefaf7"] ;
396 -> 400 ;
401 [label="isi <= 0.45\nsquared_error = 0.0\nsamples = 19\nvalue = 0.01", fillcolor="#ffffff"] ;
341 -> 401 ;
402 [label="isi <= 0.4\nsquared_error = 0.0\nsamples = 16\nvalue = 0.01", fillcolor="#ffffff"] ;
401 -> 402 ;
403 [label="wind_intensity <= 0.63\nsquared_error = 0.0\nsamples = 12\nvalue = 0.01", fillcolor="#ffffff"] ;
402 -> 403 ;
404 [label="dc <= 0.61\nsquared_error = 0.0\nsamples = 11\nvalue = 0.01", fillcolor="#ffffff"] ;
403 -> 404 ;
405 [label="wind_intensity <= 0.56\nsquared_error = 0.0\nsamples = 9\nvalue = 0.01", fillcolor="#ffffff"] ;
404 -> 405 ;
406 [label="squared_error = -0.0\nsamples = 8\nvalue = 0.01", fillcolor="#ffffff"] ;
405 -> 406 ;
407 [label="squared_error = -0.0\nsamples = 1\nvalue = 0.0", fillcolor="#ffffff"] ;
405 -> 407 ;
408 [label="avg_inclination <= 0.24\nsquared_error = 0.0\nsamples = 2\nvalue = 0.0", fillcolor="#ffffff"] ;
404 -> 408 ;
409 [label="squared_error = 0.0\nsamples = 1\nvalue = 0.0", fillcolor="#ffffff"] ;
408 -> 409 ;
410 [label="squared_error = 0.0\nsamples = 1\nvalue = 0.0", fillcolor="#ffffff"] ;
408 -> 410 ;
411 [label="squared_error = -0.0\nsamples = 1\nvalue = 0.02", fillcolor="#ffffff"] ;
403 -> 411 ;
412 [label="dc <= 0.64\nsquared_error = 0.0\nsamples = 4\nvalue = 0.02", fillcolor="#ffffff"] ;
402 -> 412 ;
413 [label="wind_intensity <= 0.51\nsquared_error = 0.0\nsamples = 3\nvalue = 0.02", fillcolor="#ffffff"] ;
412 -> 413 ;
414 [label="squared_error = -0.0\nsamples = 2\nvalue = 0.01", fillcolor="#ffffff"] ;
413 -> 414 ;
415 [label="squared_error = 0.0\nsamples = 1\nvalue = 0.02", fillcolor="#ffffff"] ;
413 -> 415 ;
416 [label="squared_error = -0.0\nsamples = 1\nvalue = 0.05", fillcolor="#fffefe"] ;
412 -> 416 ;
417 [label="relative_humidity <= 0.38\nsquared_error = 0.0\nsamples = 3\nvalue = 0.0", fillcolor="#ffffff"] ;
401 -> 417 ;
418 [label="cosn5variety <= 0.46\nsquared_error = 0.0\nsamples = 2\nvalue = 0.0", fillcolor="#ffffff"] ;
417 -> 418 ;
419 [label="squared_error = 0.0\nsamples = 1\nvalue = 0.0", fillcolor="#ffffff"] ;
418 -> 419 ;
420 [label="squared_error = -0.0\nsamples = 1\nvalue = 0.0", fillcolor="#ffffff"] ;
418 -> 420 ;
421 [label="squared_error = 0.0\nsamples = 1\nvalue = 0.0", fillcolor="#ffffff"] ;
417 -> 421 ;
422 [label="relative_humidity <= 0.41\nsquared_error = 0.01\nsamples = 23\nvalue = 0.08", fillcolor="#fffefd"] ;
338 -> 422 ;
423 [label="squared_error = 0.0\nsamples = 1\nvalue = 0.41", fillcolor="#fefaf7"] ;
422 -> 423 ;
424 [label="rvdendity <= 0.11\nsquared_error = 0.01\nsamples = 22\nvalue = 0.07", fillcolor="#fffefe"] ;
422 -> 424 ;
425 [label="ffmc <= 0.92\nsquared_error = 0.0\nsamples = 17\nvalue = 0.04", fillcolor="#fffefe"] ;
424 -> 425 ;
426 [label="dc <= 0.31\nsquared_error = 0.0\nsamples = 13\nvalue = 0.02", fillcolor="#ffffff"] ;
425 -> 426 ;
427 [label="avg_altitude <= 0.45\nsquared_error = 0.0\nsamples = 5\nvalue = 0.04", fillcolor="#fffefe"] ;
426 -> 427 ;
428 [label="duration <= 0.0\nsquared_error = 0.0\nsamples = 4\nvalue = 0.02", fillcolor="#ffffff"] ;
427 -> 428 ;
429 [label="squared_error = 0.0\nsamples = 1\nvalue = 0.05", fillcolor="#fffefe"] ;
428 -> 429 ;
430 [label="wind_intensity <= 0.65\nsquared_error = 0.0\nsamples = 3\nvalue = 0.02", fillcolor="#ffffff"] ;
428 -> 430 ;
431 [label="squared_error = -0.0\nsamples = 2\nvalue = 0.01", fillcolor="#ffffff"] ;
430 -> 431 ;
432 [label="squared_error = 0.0\nsamples = 1\nvalue = 0.02", fillcolor="#fffffe"] ;
430 -> 432 ;
433 [label="squared_error = 0.0\nsamples = 1\nvalue = 0.1", fillcolor="#fffefd"] ;
427 -> 433 ;
434 [label="wind_intensity <= 0.7\nsquared_error = 0.0\nsamples = 8\nvalue = 0.01", fillcolor="#ffffff"] ;
426 -> 434 ;
435 [label="wind_intensity <= 0.57\nsquared_error = 0.0\nsamples = 7\nvalue = 0.01", fillcolor="#ffffff"] ;
434 -> 435 ;
436 [label="doy <= 0.54\nsquared_error = 0.0\nsamples = 4\nvalue = 0.01", fillcolor="#ffffff"] ;
435 -> 436 ;
437 [label="squared_error = 0.0\nsamples = 1\nvalue = 0.01", fillcolor="#ffffff"] ;
436 -> 437 ;
438 [label="squared_error = -0.0\nsamples = 3\nvalue = 0.01", fillcolor="#ffffff"] ;
436 -> 438 ;
439 [label="dc <= 0.51\nsquared_error = 0.0\nsamples = 3\nvalue = 0.0", fillcolor="#ffffff"] ;
435 -> 439 ;
440 [label="squared_error = 0.0\nsamples = 1\nvalue = 0.0", fillcolor="#ffffff"] ;
439 -> 440 ;
441 [label="ffmc <= 0.84\nsquared_error = 0.0\nsamples = 2\nvalue = 0.0", fillcolor="#ffffff"] ;
439 -> 441 ;
442 [label="squared_error = 0.0\nsamples = 1\nvalue = 0.0", fillcolor="#ffffff"] ;
441 -> 442 ;
443 [label="squared_error = 0.0\nsamples = 1\nvalue = 0.0", fillcolor="#ffffff"] ;
441 -> 443 ;
444 [label="squared_error = -0.0\nsamples = 1\nvalue = 0.02", fillcolor="#ffffff"] ;
434 -> 444 ;
445 [label="isi <= 0.43\nsquared_error = 0.01\nsamples = 4\nvalue = 0.11", fillcolor="#fffefd"] ;
425 -> 445 ;
446 [label="squared_error = 0.0\nsamples = 1\nvalue = 0.29", fillcolor="#fefbf9"] ;
445 -> 446 ;
447 [label="lon <= 0.63\nsquared_error = 0.0\nsamples = 3\nvalue = 0.06", fillcolor="#fffefe"] ;
445 -> 447 ;
448 [label="dc <= 0.56\nsquared_error = 0.0\nsamples = 2\nvalue = 0.01", fillcolor="#ffffff"] ;
447 -> 448 ;
449 [label="squared_error = 0.0\nsamples = 1\nvalue = 0.0", fillcolor="#ffffff"] ;
448 -> 449 ;
450 [label="squared_error = 0.0\nsamples = 1\nvalue = 0.01", fillcolor="#ffffff"] ;
448 -> 450 ;
451 [label="squared_error = 0.0\nsamples = 1\nvalue = 0.12", fillcolor="#fffdfc"] ;
447 -> 451 ;
452 [label="precipitation <= 0.02\nsquared_error = 0.01\nsamples = 5\nvalue = 0.14", fillcolor="#fffdfc"] ;
424 -> 452 ;
453 [label="dc <= 0.42\nsquared_error = 0.0\nsamples = 4\nvalue = 0.11", fillcolor="#fffefd"] ;
452 -> 453 ;
454 [label="squared_error = 0.0\nsamples = 1\nvalue = 0.18", fillcolor="#fffdfb"] ;
453 -> 454 ;
455 [label="avg_inclination <= 0.27\nsquared_error = 0.0\nsamples = 3\nvalue = 0.08", fillcolor="#fffefd"] ;
453 -> 455 ;
456 [label="squared_error = 0.0\nsamples = 2\nvalue = 0.1", fillcolor="#fffefd"] ;
455 -> 456 ;
457 [label="squared_error = 0.0\nsamples = 1\nvalue = 0.01", fillcolor="#ffffff"] ;
455 -> 457 ;
458 [label="squared_error = -0.0\nsamples = 1\nvalue = 0.34", fillcolor="#fefbf8"] ;
452 -> 458 ;
459 [label="dc <= 0.37\nsquared_error = 0.0\nsamples = 36\nvalue = 0.01", fillcolor="#ffffff"] ;
337 -> 459 ;
460 [label="rvdendity <= 0.1\nsquared_error = 0.0\nsamples = 17\nvalue = 0.02", fillcolor="#ffffff"] ;
459 -> 460 ;
461 [label="precipitation <= 0.0\nsquared_error = 0.0\nsamples = 15\nvalue = 0.02", fillcolor="#ffffff"] ;
460 -> 461 ;
462 [label="dc <= 0.34\nsquared_error = 0.0\nsamples = 12\nvalue = 0.01", fillcolor="#ffffff"] ;
461 -> 462 ;
463 [label="ffmc <= 0.89\nsquared_error = 0.0\nsamples = 11\nvalue = 0.01", fillcolor="#ffffff"] ;
462 -> 463 ;
464 [label="duration <= 0.0\nsquared_error = 0.0\nsamples = 8\nvalue = 0.01", fillcolor="#ffffff"] ;
463 -> 464 ;
465 [label="squared_error = 0.0\nsamples = 1\nvalue = 0.03", fillcolor="#fffffe"] ;
464 -> 465 ;
466 [label="cosn5variety <= 0.55\nsquared_error = 0.0\nsamples = 7\nvalue = 0.01", fillcolor="#ffffff"] ;
464 -> 466 ;
467 [label="dc <= 0.2\nsquared_error = 0.0\nsamples = 5\nvalue = 0.01", fillcolor="#ffffff"] ;
466 -> 467 ;
468 [label="squared_error = 0.0\nsamples = 4\nvalue = 0.01", fillcolor="#ffffff"] ;
467 -> 468 ;
469 [label="squared_error = 0.0\nsamples = 1\nvalue = 0.01", fillcolor="#ffffff"] ;
467 -> 469 ;
470 [label="lon <= 0.56\nsquared_error = 0.0\nsamples = 2\nvalue = 0.02", fillcolor="#ffffff"] ;
466 -> 470 ;
471 [label="squared_error = 0.0\nsamples = 1\nvalue = 0.02", fillcolor="#ffffff"] ;
470 -> 471 ;
472 [label="squared_error = -0.0\nsamples = 1\nvalue = 0.01", fillcolor="#ffffff"] ;
470 -> 472 ;
473 [label="dc <= 0.11\nsquared_error = 0.0\nsamples = 3\nvalue = 0.0", fillcolor="#ffffff"] ;
463 -> 473 ;
474 [label="squared_error = 0.0\nsamples = 1\nvalue = 0.0", fillcolor="#ffffff"] ;
473 -> 474 ;
475 [label="wind_intensity <= 0.47\nsquared_error = 0.0\nsamples = 2\nvalue = 0.0", fillcolor="#ffffff"] ;
473 -> 475 ;
476 [label="squared_error = 0.0\nsamples = 1\nvalue = 0.0", fillcolor="#ffffff"] ;
475 -> 476 ;
477 [label="squared_error = 0.0\nsamples = 1\nvalue = 0.0", fillcolor="#ffffff"] ;
475 -> 477 ;
478 [label="squared_error = -0.0\nsamples = 1\nvalue = 0.03", fillcolor="#fffffe"] ;
462 -> 478 ;
479 [label="isi <= 0.28\nsquared_error = 0.0\nsamples = 3\nvalue = 0.04", fillcolor="#fffffe"] ;
461 -> 479 ;
480 [label="squared_error = 0.0\nsamples = 1\nvalue = 0.02", fillcolor="#ffffff"] ;
479 -> 480 ;
481 [label="avg_altitude <= 0.43\nsquared_error = 0.0\nsamples = 2\nvalue = 0.04", fillcolor="#fffefe"] ;
479 -> 481 ;
482 [label="squared_error = 0.0\nsamples = 1\nvalue = 0.04", fillcolor="#fffefe"] ;
481 -> 482 ;
483 [label="squared_error = 0.0\nsamples = 1\nvalue = 0.05", fillcolor="#fffefe"] ;
481 -> 483 ;
484 [label="precipitation <= 0.0\nsquared_error = 0.0\nsamples = 2\nvalue = 0.08", fillcolor="#fffefd"] ;
460 -> 484 ;
485 [label="squared_error = 0.0\nsamples = 1\nvalue = 0.1", fillcolor="#fffefd"] ;
484 -> 485 ;
486 [label="squared_error = 0.0\nsamples = 1\nvalue = 0.06", fillcolor="#fffefe"] ;
484 -> 486 ;
487 [label="ffmc <= 0.6\nsquared_error = 0.0\nsamples = 19\nvalue = 0.01", fillcolor="#ffffff"] ;
459 -> 487 ;
488 [label="squared_error = 0.0\nsamples = 1\nvalue = 0.05", fillcolor="#fffefe"] ;
487 -> 488 ;
489 [label="doy <= 0.8\nsquared_error = 0.0\nsamples = 18\nvalue = 0.01", fillcolor="#ffffff"] ;
487 -> 489 ;
490 [label="lon <= 0.58\nsquared_error = 0.0\nsamples = 14\nvalue = 0.0", fillcolor="#ffffff"] ;
489 -> 490 ;
491 [label="avg_altitude <= 0.63\nsquared_error = 0.0\nsamples = 6\nvalue = 0.01", fillcolor="#ffffff"] ;
490 -> 491 ;
492 [label="squared_error = 0.0\nsamples = 5\nvalue = 0.01", fillcolor="#ffffff"] ;
491 -> 492 ;
493 [label="squared_error = 0.0\nsamples = 1\nvalue = 0.0", fillcolor="#ffffff"] ;
491 -> 493 ;
494 [label="dc <= 0.48\nsquared_error = 0.0\nsamples = 8\nvalue = 0.0", fillcolor="#ffffff"] ;
490 -> 494 ;
495 [label="isi <= 0.46\nsquared_error = 0.0\nsamples = 2\nvalue = 0.01", fillcolor="#ffffff"] ;
494 -> 495 ;
496 [label="squared_error = 0.0\nsamples = 1\nvalue = 0.01", fillcolor="#ffffff"] ;
495 -> 496 ;
497 [label="squared_error = -0.0\nsamples = 1\nvalue = 0.01", fillcolor="#ffffff"] ;
495 -> 497 ;
498 [label="duration <= 0.0\nsquared_error = 0.0\nsamples = 6\nvalue = 0.0", fillcolor="#ffffff"] ;
494 -> 498 ;
499 [label="squared_error = 0.0\nsamples = 2\nvalue = 0.0", fillcolor="#ffffff"] ;
498 -> 499 ;
500 [label="relative_humidity <= 0.67\nsquared_error = 0.0\nsamples = 4\nvalue = 0.0", fillcolor="#ffffff"] ;
498 -> 500 ;
501 [label="dmc <= 0.16\nsquared_error = 0.0\nsamples = 3\nvalue = 0.0", fillcolor="#ffffff"] ;
500 -> 501 ;
502 [label="squared_error = 0.0\nsamples = 1\nvalue = 0.0", fillcolor="#ffffff"] ;
501 -> 502 ;
503 [label="squared_error = -0.0\nsamples = 2\nvalue = 0.0", fillcolor="#ffffff"] ;
501 -> 503 ;
504 [label="squared_error = 0.0\nsamples = 1\nvalue = 0.0", fillcolor="#ffffff"] ;
500 -> 504 ;
505 [label="wind_intensity <= 0.45\nsquared_error = 0.0\nsamples = 4\nvalue = 0.01", fillcolor="#ffffff"] ;
489 -> 505 ;
506 [label="squared_error = 0.0\nsamples = 2\nvalue = 0.01", fillcolor="#ffffff"] ;
505 -> 506 ;
507 [label="squared_error = 0.0\nsamples = 2\nvalue = 0.01", fillcolor="#ffffff"] ;
505 -> 507 ;
508 [label="dmc <= 0.21\nsquared_error = 0.0\nsamples = 2\nvalue = 0.13", fillcolor="#fffdfc"] ;
336 -> 508 ;
509 [label="squared_error = 0.0\nsamples = 1\nvalue = 0.19", fillcolor="#fefdfb"] ;
508 -> 509 ;
510 [label="squared_error = 0.0\nsamples = 1\nvalue = 0.1", fillcolor="#fffefd"] ;
508 -> 510 ;
511 [label="ffmc <= 0.94\nsquared_error = 0.02\nsamples = 2\nvalue = 0.2", fillcolor="#fefcfb"] ;
335 -> 511 ;
512 [label="squared_error = 0.0\nsamples = 1\nvalue = 0.41", fillcolor="#fefaf7"] ;
511 -> 512 ;
513 [label="squared_error = 0.0\nsamples = 1\nvalue = 0.1", fillcolor="#fffefd"] ;
511 -> 513 ;
514 [label="duration <= 0.0\nsquared_error = 0.02\nsamples = 115\nvalue = 0.08", fillcolor="#fffefd"] ;
334 -> 514 ;
515 [label="lat <= 0.85\nsquared_error = 0.01\nsamples = 68\nvalue = 0.06", fillcolor="#fffefe"] ;
514 -> 515 ;
516 [label="dc <= 0.89\nsquared_error = 0.01\nsamples = 63\nvalue = 0.05", fillcolor="#fffefe"] ;
515 -> 516 ;
517 [label="wind_intensity <= 0.36\nsquared_error = 0.0\nsamples = 62\nvalue = 0.05", fillcolor="#fffefe"] ;
516 -> 517 ;
518 [label="dmc <= 0.11\nsquared_error = 0.0\nsamples = 9\nvalue = 0.0", fillcolor="#ffffff"] ;
517 -> 518 ;
519 [label="relative_humidity <= 0.43\nsquared_error = 0.0\nsamples = 2\nvalue = 0.03", fillcolor="#fffffe"] ;
518 -> 519 ;
520 [label="squared_error = 0.0\nsamples = 1\nvalue = 0.03", fillcolor="#fffffe"] ;
519 -> 520 ;
521 [label="squared_error = 0.0\nsamples = 1\nvalue = 0.02", fillcolor="#ffffff"] ;
519 -> 521 ;
522 [label="relative_humidity <= 0.21\nsquared_error = 0.0\nsamples = 7\nvalue = 0.0", fillcolor="#ffffff"] ;
518 -> 522 ;
523 [label="rvdendity <= 0.11\nsquared_error = 0.0\nsamples = 2\nvalue = 0.0", fillcolor="#ffffff"] ;
522 -> 523 ;
524 [label="squared_error = 0.0\nsamples = 1\nvalue = 0.0", fillcolor="#ffffff"] ;
523 -> 524 ;
525 [label="squared_error = 0.0\nsamples = 1\nvalue = 0.0", fillcolor="#ffffff"] ;
523 -> 525 ;
526 [label="duration <= 0.0\nsquared_error = 0.0\nsamples = 5\nvalue = 0.0", fillcolor="#ffffff"] ;
522 -> 526 ;
527 [label="isi <= 0.41\nsquared_error = 0.0\nsamples = 3\nvalue = 0.0", fillcolor="#ffffff"] ;
526 -> 527 ;
528 [label="squared_error = 0.0\nsamples = 2\nvalue = 0.0", fillcolor="#ffffff"] ;
527 -> 528 ;
529 [label="squared_error = 0.0\nsamples = 1\nvalue = 0.0", fillcolor="#ffffff"] ;
527 -> 529 ;
530 [label="lat <= 0.66\nsquared_error = 0.0\nsamples = 2\nvalue = 0.0", fillcolor="#ffffff"] ;
526 -> 530 ;
531 [label="squared_error = 0.0\nsamples = 1\nvalue = 0.0", fillcolor="#ffffff"] ;
530 -> 531 ;
532 [label="squared_error = 0.0\nsamples = 1\nvalue = 0.0", fillcolor="#ffffff"] ;
530 -> 532 ;
533 [label="dmc <= 0.38\nsquared_error = 0.01\nsamples = 53\nvalue = 0.06", fillcolor="#fffefe"] ;
517 -> 533 ;
534 [label="dc <= 0.18\nsquared_error = 0.0\nsamples = 29\nvalue = 0.03", fillcolor="#fffffe"] ;
533 -> 534 ;
535 [label="avg_inclination <= 0.14\nsquared_error = 0.0\nsamples = 2\nvalue = 0.13", fillcolor="#fffdfc"] ;
534 -> 535 ;
536 [label="squared_error = 0.0\nsamples = 1\nvalue = 0.15", fillcolor="#fffdfc"] ;
535 -> 536 ;
537 [label="squared_error = 0.0\nsamples = 1\nvalue = 0.1", fillcolor="#fffefd"] ;
535 -> 537 ;
538 [label="cosn5variety <= 0.25\nsquared_error = 0.0\nsamples = 27\nvalue = 0.03", fillcolor="#fffffe"] ;
534 -> 538 ;
539 [label="squared_error = 0.0\nsamples = 1\nvalue = 0.15", fillcolor="#fffdfc"] ;
538 -> 539 ;
540 [label="isi <= 0.55\nsquared_error = 0.0\nsamples = 26\nvalue = 0.02", fillcolor="#ffffff"] ;
538 -> 540 ;
541 [label="doy <= 0.85\nsquared_error = 0.0\nsamples = 25\nvalue = 0.02", fillcolor="#ffffff"] ;
540 -> 541 ;
542 [label="dc <= 0.55\nsquared_error = 0.0\nsamples = 24\nvalue = 0.02", fillcolor="#ffffff"] ;
541 -> 542 ;
543 [label="cosn5variety <= 0.42\nsquared_error = 0.0\nsamples = 13\nvalue = 0.03", fillcolor="#fffffe"] ;
542 -> 543 ;
544 [label="dmc <= 0.24\nsquared_error = 0.0\nsamples = 8\nvalue = 0.02", fillcolor="#ffffff"] ;
543 -> 544 ;
545 [label="cosn5variety <= 0.37\nsquared_error = 0.0\nsamples = 6\nvalue = 0.01", fillcolor="#ffffff"] ;
544 -> 545 ;
546 [label="lat <= 0.34\nsquared_error = 0.0\nsamples = 3\nvalue = 0.01", fillcolor="#ffffff"] ;
545 -> 546 ;
547 [label="squared_error = 0.0\nsamples = 1\nvalue = 0.01", fillcolor="#ffffff"] ;
546 -> 547 ;
548 [label="squared_error = -0.0\nsamples = 2\nvalue = 0.01", fillcolor="#ffffff"] ;
546 -> 548 ;
549 [label="squared_error = -0.0\nsamples = 3\nvalue = 0.0", fillcolor="#ffffff"] ;
545 -> 549 ;
550 [label="avg_inclination <= 0.15\nsquared_error = 0.0\nsamples = 2\nvalue = 0.03", fillcolor="#fffffe"] ;
544 -> 550 ;
551 [label="squared_error = 0.0\nsamples = 1\nvalue = 0.04", fillcolor="#fffefe"] ;
550 -> 551 ;
552 [label="squared_error = 0.0\nsamples = 1\nvalue = 0.03", fillcolor="#fffffe"] ;
550 -> 552 ;
553 [label="relative_humidity <= 0.43\nsquared_error = 0.0\nsamples = 5\nvalue = 0.06", fillcolor="#fffefe"] ;
543 -> 553 ;
554 [label="avg_altitude <= 0.38\nsquared_error = 0.0\nsamples = 3\nvalue = 0.04", fillcolor="#fffffe"] ;
553 -> 554 ;
555 [label="duration <= 0.0\nsquared_error = 0.0\nsamples = 2\nvalue = 0.03", fillcolor="#fffffe"] ;
554 -> 555 ;
556 [label="squared_error = 0.0\nsamples = 1\nvalue = 0.04", fillcolor="#fffefe"] ;
555 -> 556 ;
557 [label="squared_error = 0.0\nsamples = 1\nvalue = 0.02", fillcolor="#ffffff"] ;
555 -> 557 ;
558 [label="squared_error = 0.0\nsamples = 1\nvalue = 0.06", fillcolor="#fffefe"] ;
554 -> 558 ;
559 [label="isi <= 0.29\nsquared_error = 0.0\nsamples = 2\nvalue = 0.09", fillcolor="#fffefd"] ;
553 -> 559 ;
560 [label="squared_error = 0.0\nsamples = 1\nvalue = 0.09", fillcolor="#fffefd"] ;
559 -> 560 ;
561 [label="squared_error = 0.0\nsamples = 1\nvalue = 0.08", fillcolor="#fffefd"] ;
559 -> 561 ;
562 [label="dmc <= 0.36\nsquared_error = 0.0\nsamples = 11\nvalue = 0.01", fillcolor="#ffffff"] ;
542 -> 562 ;
563 [label="lon <= 0.71\nsquared_error = 0.0\nsamples = 10\nvalue = 0.0", fillcolor="#ffffff"] ;
562 -> 563 ;
564 [label="squared_error = 0.0\nsamples = 2\nvalue = 0.01", fillcolor="#ffffff"] ;
563 -> 564 ;
565 [label="wind_intensity <= 0.54\nsquared_error = 0.0\nsamples = 8\nvalue = 0.0", fillcolor="#ffffff"] ;
563 -> 565 ;
566 [label="ffmc <= 0.91\nsquared_error = 0.0\nsamples = 5\nvalue = 0.0", fillcolor="#ffffff"] ;
565 -> 566 ;
567 [label="lon <= 0.77\nsquared_error = 0.0\nsamples = 2\nvalue = 0.0", fillcolor="#ffffff"] ;
566 -> 567 ;
568 [label="squared_error = 0.0\nsamples = 1\nvalue = 0.0", fillcolor="#ffffff"] ;
567 -> 568 ;
569 [label="squared_error = 0.0\nsamples = 1\nvalue = 0.0", fillcolor="#ffffff"] ;
567 -> 569 ;
570 [label="relative_humidity <= 0.21\nsquared_error = 0.0\nsamples = 3\nvalue = 0.0", fillcolor="#ffffff"] ;
566 -> 570 ;
571 [label="squared_error = 0.0\nsamples = 1\nvalue = 0.0", fillcolor="#ffffff"] ;
570 -> 571 ;
572 [label="squared_error = -0.0\nsamples = 2\nvalue = 0.0", fillcolor="#ffffff"] ;
570 -> 572 ;
573 [label="wind_intensity <= 0.65\nsquared_error = 0.0\nsamples = 3\nvalue = 0.01", fillcolor="#ffffff"] ;
565 -> 573 ;
574 [label="squared_error = 0.0\nsamples = 1\nvalue = 0.01", fillcolor="#ffffff"] ;
573 -> 574 ;
575 [label="wind_intensity <= 0.8\nsquared_error = 0.0\nsamples = 2\nvalue = 0.0", fillcolor="#ffffff"] ;
573 -> 575 ;
576 [label="squared_error = 0.0\nsamples = 1\nvalue = 0.01", fillcolor="#ffffff"] ;
575 -> 576 ;
577 [label="squared_error = -0.0\nsamples = 1\nvalue = 0.0", fillcolor="#ffffff"] ;
575 -> 577 ;
578 [label="squared_error = 0.0\nsamples = 1\nvalue = 0.02", fillcolor="#ffffff"] ;
562 -> 578 ;
579 [label="squared_error = -0.0\nsamples = 1\nvalue = 0.11", fillcolor="#fffefd"] ;
541 -> 579 ;
580 [label="squared_error = 0.0\nsamples = 1\nvalue = 0.14", fillcolor="#fffdfc"] ;
540 -> 580 ;
581 [label="doy <= 0.69\nsquared_error = 0.01\nsamples = 24\nvalue = 0.09", fillcolor="#fffefd"] ;
533 -> 581 ;
582 [label="duration <= 0.0\nsquared_error = 0.0\nsamples = 20\nvalue = 0.06", fillcolor="#fffefe"] ;
581 -> 582 ;
583 [label="ffmc <= 0.97\nsquared_error = 0.0\nsamples = 17\nvalue = 0.05", fillcolor="#fffefe"] ;
582 -> 583 ;
584 [label="avg_inclination <= 0.34\nsquared_error = 0.0\nsamples = 16\nvalue = 0.04", fillcolor="#fffefe"] ;
583 -> 584 ;
585 [label="avg_inclination <= 0.05\nsquared_error = 0.0\nsamples = 13\nvalue = 0.03", fillcolor="#fffffe"] ;
584 -> 585 ;
586 [label="ffmc <= 0.97\nsquared_error = 0.0\nsamples = 2\nvalue = 0.07", fillcolor="#fffefe"] ;
585 -> 586 ;
587 [label="squared_error = 0.0\nsamples = 1\nvalue = 0.1", fillcolor="#fffefd"] ;
586 -> 587 ;
588 [label="squared_error = -0.0\nsamples = 1\nvalue = 0.04", fillcolor="#fffefe"] ;
586 -> 588 ;
589 [label="dmc <= 0.64\nsquared_error = 0.0\nsamples = 11\nvalue = 0.02", fillcolor="#fffffe"] ;
585 -> 589 ;
590 [label="ffmc <= 0.91\nsquared_error = 0.0\nsamples = 6\nvalue = 0.04", fillcolor="#fffffe"] ;
589 -> 590 ;
591 [label="dmc <= 0.46\nsquared_error = 0.0\nsamples = 2\nvalue = 0.01", fillcolor="#ffffff"] ;
590 -> 591 ;
592 [label="squared_error = 0.0\nsamples = 1\nvalue = 0.0", fillcolor="#ffffff"] ;
591 -> 592 ;
593 [label="squared_error = 0.0\nsamples = 1\nvalue = 0.02", fillcolor="#ffffff"] ;
591 -> 593 ;
594 [label="doy <= 0.42\nsquared_error = 0.0\nsamples = 4\nvalue = 0.04", fillcolor="#fffefe"] ;
590 -> 594 ;
595 [label="relative_humidity <= 0.39\nsquared_error = 0.0\nsamples = 2\nvalue = 0.03", fillcolor="#fffffe"] ;
594 -> 595 ;
596 [label="squared_error = 0.0\nsamples = 1\nvalue = 0.04", fillcolor="#fffefe"] ;
595 -> 596 ;
597 [label="squared_error = -0.0\nsamples = 1\nvalue = 0.03", fillcolor="#fffffe"] ;
595 -> 597 ;
598 [label="ffmc <= 0.94\nsquared_error = 0.0\nsamples = 2\nvalue = 0.05", fillcolor="#fffefe"] ;
594 -> 598 ;
599 [label="squared_error = 0.0\nsamples = 1\nvalue = 0.06", fillcolor="#fffefe"] ;
598 -> 599 ;
600 [label="squared_error = 0.0\nsamples = 1\nvalue = 0.05", fillcolor="#fffefe"] ;
598 -> 600 ;
601 [label="avg_altitude <= 0.37\nsquared_error = 0.0\nsamples = 5\nvalue = 0.01", fillcolor="#ffffff"] ;
589 -> 601 ;
602 [label="avg_altitude <= 0.36\nsquared_error = 0.0\nsamples = 2\nvalue = 0.02", fillcolor="#ffffff"] ;
601 -> 602 ;
603 [label="squared_error = 0.0\nsamples = 1\nvalue = 0.01", fillcolor="#ffffff"] ;
602 -> 603 ;
604 [label="squared_error = 0.0\nsamples = 1\nvalue = 0.02", fillcolor="#ffffff"] ;
602 -> 604 ;
605 [label="dmc <= 0.8\nsquared_error = 0.0\nsamples = 3\nvalue = 0.0", fillcolor="#ffffff"] ;
601 -> 605 ;
606 [label="wind_intensity <= 0.54\nsquared_error = 0.0\nsamples = 2\nvalue = 0.0", fillcolor="#ffffff"] ;
605 -> 606 ;
607 [label="squared_error = 0.0\nsamples = 1\nvalue = 0.0", fillcolor="#ffffff"] ;
606 -> 607 ;
608 [label="squared_error = 0.0\nsamples = 1\nvalue = 0.0", fillcolor="#ffffff"] ;
606 -> 608 ;
609 [label="squared_error = 0.0\nsamples = 1\nvalue = 0.0", fillcolor="#ffffff"] ;
605 -> 609 ;
610 [label="duration <= 0.0\nsquared_error = 0.0\nsamples = 3\nvalue = 0.1", fillcolor="#fffefd"] ;
584 -> 610 ;
611 [label="rvdendity <= 0.06\nsquared_error = 0.0\nsamples = 2\nvalue = 0.14", fillcolor="#fffdfc"] ;
610 -> 611 ;
612 [label="squared_error = 0.0\nsamples = 1\nvalue = 0.17", fillcolor="#fffdfc"] ;
611 -> 612 ;
613 [label="squared_error = 0.0\nsamples = 1\nvalue = 0.12", fillcolor="#fffdfc"] ;
611 -> 613 ;
614 [label="squared_error = -0.0\nsamples = 1\nvalue = 0.0", fillcolor="#ffffff"] ;
610 -> 614 ;
615 [label="squared_error = 0.0\nsamples = 1\nvalue = 0.2", fillcolor="#fefcfb"] ;
583 -> 615 ;
616 [label="relative_humidity <= 0.21\nsquared_error = 0.0\nsamples = 3\nvalue = 0.19", fillcolor="#fefdfb"] ;
582 -> 616 ;
617 [label="squared_error = 0.0\nsamples = 1\nvalue = 0.11", fillcolor="#fffefd"] ;
616 -> 617 ;
618 [label="lon <= 0.76\nsquared_error = 0.0\nsamples = 2\nvalue = 0.23", fillcolor="#fefcfa"] ;
616 -> 618 ;
619 [label="squared_error = 0.0\nsamples = 1\nvalue = 0.25", fillcolor="#fefcfa"] ;
618 -> 619 ;
620 [label="squared_error = -0.0\nsamples = 1\nvalue = 0.2", fillcolor="#fefcfb"] ;
618 -> 620 ;
621 [label="dmc <= 0.52\nsquared_error = 0.01\nsamples = 4\nvalue = 0.17", fillcolor="#fffdfb"] ;
581 -> 621 ;
622 [label="precipitation <= 0.07\nsquared_error = 0.0\nsamples = 3\nvalue = 0.28", fillcolor="#fefbf9"] ;
621 -> 622 ;
623 [label="dmc <= 0.46\nsquared_error = 0.0\nsamples = 2\nvalue = 0.25", fillcolor="#fefcfa"] ;
622 -> 623 ;
624 [label="squared_error = 0.0\nsamples = 1\nvalue = 0.25", fillcolor="#fefcfa"] ;
623 -> 624 ;
625 [label="squared_error = 0.0\nsamples = 1\nvalue = 0.26", fillcolor="#fefcfa"] ;
623 -> 625 ;
626 [label="squared_error = 0.0\nsamples = 1\nvalue = 0.35", fillcolor="#fefaf8"] ;
622 -> 626 ;
627 [label="squared_error = 0.0\nsamples = 1\nvalue = 0.07", fillcolor="#fffefe"] ;
621 -> 627 ;
628 [label="squared_error = -0.0\nsamples = 1\nvalue = 0.29", fillcolor="#fefbf9"] ;
516 -> 628 ;
629 [label="lat <= 0.85\nsquared_error = 0.02\nsamples = 5\nvalue = 0.17", fillcolor="#fffdfc"] ;
515 -> 629 ;
630 [label="squared_error = 0.0\nsamples = 1\nvalue = 0.52", fillcolor="#fef8f4"] ;
629 -> 630 ;
631 [label="wind_intensity <= 0.52\nsquared_error = 0.01\nsamples = 4\nvalue = 0.12", fillcolor="#fffdfc"] ;
629 -> 631 ;
632 [label="squared_error = 0.0\nsamples = 1\nvalue = 0.2", fillcolor="#fefcfb"] ;
631 -> 632 ;
633 [label="dc <= 0.6\nsquared_error = 0.0\nsamples = 3\nvalue = 0.05", fillcolor="#fffefe"] ;
631 -> 633 ;
634 [label="duration <= 0.0\nsquared_error = 0.0\nsamples = 2\nvalue = 0.06", fillcolor="#fffefe"] ;
633 -> 634 ;
635 [label="squared_error = 0.0\nsamples = 1\nvalue = 0.08", fillcolor="#fffefd"] ;
634 -> 635 ;
636 [label="squared_error = -0.0\nsamples = 1\nvalue = 0.05", fillcolor="#fffefe"] ;
634 -> 636 ;
637 [label="squared_error = 0.0\nsamples = 1\nvalue = 0.01", fillcolor="#ffffff"] ;
633 -> 637 ;
638 [label="relative_humidity <= 0.14\nsquared_error = 0.04\nsamples = 47\nvalue = 0.12", fillcolor="#fffdfd"] ;
514 -> 638 ;
639 [label="squared_error = 0.0\nsamples = 1\nvalue = 0.57", fillcolor="#fdf8f3"] ;
638 -> 639 ;
640 [label="lon <= 0.72\nsquared_error = 0.04\nsamples = 46\nvalue = 0.11", fillcolor="#fffefd"] ;
638 -> 640 ;
641 [label="duration <= 0.0\nsquared_error = 0.1\nsamples = 8\nvalue = 0.26", fillcolor="#fefcfa"] ;
640 -> 641 ;
642 [label="squared_error = 0.0\nsamples = 1\nvalue = 1.13", fillcolor="#fcf0e8"] ;
641 -> 642 ;
643 [label="relative_humidity <= 0.24\nsquared_error = 0.02\nsamples = 7\nvalue = 0.16", fillcolor="#fffdfc"] ;
641 -> 643 ;
644 [label="squared_error = 0.0\nsamples = 1\nvalue = 0.44", fillcolor="#fef9f6"] ;
643 -> 644 ;
645 [label="cosn5variety <= 0.5\nsquared_error = 0.01\nsamples = 6\nvalue = 0.13", fillcolor="#fffdfc"] ;
643 -> 645 ;
646 [label="lon <= 0.71\nsquared_error = 0.0\nsamples = 4\nvalue = 0.06", fillcolor="#fffefe"] ;
645 -> 646 ;
647 [label="avg_inclination <= 0.15\nsquared_error = 0.0\nsamples = 3\nvalue = 0.03", fillcolor="#fffffe"] ;
646 -> 647 ;
648 [label="squared_error = 0.0\nsamples = 1\nvalue = 0.05", fillcolor="#fffefe"] ;
647 -> 648 ;
649 [label="cosn5variety <= 0.39\nsquared_error = 0.0\nsamples = 2\nvalue = 0.02", fillcolor="#ffffff"] ;
647 -> 649 ;
650 [label="squared_error = 0.0\nsamples = 1\nvalue = 0.02", fillcolor="#ffffff"] ;
649 -> 650 ;
651 [label="squared_error = 0.0\nsamples = 1\nvalue = 0.01", fillcolor="#ffffff"] ;
649 -> 651 ;
652 [label="squared_error = 0.0\nsamples = 1\nvalue = 0.14", fillcolor="#fffdfc"] ;
646 -> 652 ;
653 [label="relative_humidity <= 0.35\nsquared_error = 0.0\nsamples = 2\nvalue = 0.2", fillcolor="#fefcfb"] ;
645 -> 653 ;
654 [label="squared_error = 0.0\nsamples = 1\nvalue = 0.18", fillcolor="#fffdfb"] ;
653 -> 654 ;
655 [label="squared_error = 0.0\nsamples = 1\nvalue = 0.21", fillcolor="#fefcfb"] ;
653 -> 655 ;
656 [label="doy <= 0.56\nsquared_error = 0.02\nsamples = 38\nvalue = 0.08", fillcolor="#fffefd"] ;
640 -> 656 ;
657 [label="doy <= 0.56\nsquared_error = 0.05\nsamples = 18\nvalue = 0.15", fillcolor="#fffdfc"] ;
656 -> 657 ;
658 [label="lat <= 0.79\nsquared_error = 0.02\nsamples = 17\nvalue = 0.11", fillcolor="#fffefd"] ;
657 -> 658 ;
659 [label="dc <= 0.2\nsquared_error = 0.01\nsamples = 13\nvalue = 0.07", fillcolor="#fffefe"] ;
658 -> 659 ;
660 [label="duration <= 0.0\nsquared_error = 0.01\nsamples = 4\nvalue = 0.15", fillcolor="#fffdfc"] ;
659 -> 660 ;
661 [label="rvdendity <= 0.09\nsquared_error = 0.0\nsamples = 3\nvalue = 0.11", fillcolor="#fffefd"] ;
660 -> 661 ;
662 [label="squared_error = 0.0\nsamples = 1\nvalue = 0.15", fillcolor="#fffdfc"] ;
661 -> 662 ;
663 [label="wind_intensity <= 0.56\nsquared_error = 0.0\nsamples = 2\nvalue = 0.03", fillcolor="#fffffe"] ;
661 -> 663 ;
664 [label="squared_error = 0.0\nsamples = 1\nvalue = 0.06", fillcolor="#fffefe"] ;
663 -> 664 ;
665 [label="squared_error = 0.0\nsamples = 1\nvalue = 0.0", fillcolor="#ffffff"] ;
663 -> 665 ;
666 [label="squared_error = 0.0\nsamples = 1\nvalue = 0.36", fillcolor="#fefaf8"] ;
660 -> 666 ;
667 [label="avg_inclination <= 0.05\nsquared_error = 0.0\nsamples = 9\nvalue = 0.04", fillcolor="#fffffe"] ;
659 -> 667 ;
668 [label="squared_error = 0.0\nsamples = 1\nvalue = 0.09", fillcolor="#fffefd"] ;
667 -> 668 ;
669 [label="cosn5variety <= 0.4\nsquared_error = 0.0\nsamples = 8\nvalue = 0.02", fillcolor="#ffffff"] ;
667 -> 669 ;
670 [label="wind_intensity <= 0.51\nsquared_error = 0.0\nsamples = 3\nvalue = 0.04", fillcolor="#fffefe"] ;
669 -> 670 ;
671 [label="squared_error = 0.0\nsamples = 1\nvalue = 0.03", fillcolor="#fffffe"] ;
670 -> 671 ;
672 [label="relative_humidity <= 0.3\nsquared_error = 0.0\nsamples = 2\nvalue = 0.05", fillcolor="#fffefe"] ;
670 -> 672 ;
673 [label="squared_error = 0.0\nsamples = 1\nvalue = 0.05", fillcolor="#fffefe"] ;
672 -> 673 ;
674 [label="squared_error = -0.0\nsamples = 1\nvalue = 0.05", fillcolor="#fffefe"] ;
672 -> 674 ;
675 [label="dc <= 0.39\nsquared_error = 0.0\nsamples = 5\nvalue = 0.01", fillcolor="#ffffff"] ;
669 -> 675 ;
676 [label="rvdendity <= 0.05\nsquared_error = 0.0\nsamples = 2\nvalue = 0.02", fillcolor="#ffffff"] ;
675 -> 676 ;
677 [label="squared_error = 0.0\nsamples = 1\nvalue = 0.02", fillcolor="#ffffff"] ;
676 -> 677 ;
678 [label="squared_error = 0.0\nsamples = 1\nvalue = 0.02", fillcolor="#ffffff"] ;
676 -> 678 ;
679 [label="relative_humidity <= 0.3\nsquared_error = 0.0\nsamples = 3\nvalue = 0.0", fillcolor="#ffffff"] ;
675 -> 679 ;
680 [label="squared_error = 0.0\nsamples = 1\nvalue = 0.0", fillcolor="#ffffff"] ;
679 -> 680 ;
681 [label="doy <= 0.39\nsquared_error = 0.0\nsamples = 2\nvalue = 0.01", fillcolor="#ffffff"] ;
679 -> 681 ;
682 [label="squared_error = 0.0\nsamples = 1\nvalue = 0.01", fillcolor="#ffffff"] ;
681 -> 682 ;
683 [label="squared_error = -0.0\nsamples = 1\nvalue = 0.0", fillcolor="#ffffff"] ;
681 -> 683 ;
684 [label="relative_humidity <= 0.32\nsquared_error = 0.02\nsamples = 4\nvalue = 0.26", fillcolor="#fefcfa"] ;
658 -> 684 ;
685 [label="avg_altitude <= 0.47\nsquared_error = 0.0\nsamples = 2\nvalue = 0.35", fillcolor="#fefaf8"] ;
684 -> 685 ;
686 [label="squared_error = 0.0\nsamples = 1\nvalue = 0.41", fillcolor="#fefaf7"] ;
685 -> 686 ;
687 [label="squared_error = -0.0\nsamples = 1\nvalue = 0.3", fillcolor="#fefbf9"] ;
685 -> 687 ;
688 [label="dmc <= 0.28\nsquared_error = 0.0\nsamples = 2\nvalue = 0.06", fillcolor="#fffefe"] ;
684 -> 688 ;
689 [label="squared_error = 0.0\nsamples = 1\nvalue = 0.12", fillcolor="#fffdfc"] ;
688 -> 689 ;
690 [label="squared_error = -0.0\nsamples = 1\nvalue = 0.0", fillcolor="#ffffff"] ;
688 -> 690 ;
691 [label="squared_error = -0.0\nsamples = 1\nvalue = 1.1", fillcolor="#fcf1e8"] ;
657 -> 691 ;
692 [label="relative_humidity <= 0.24\nsquared_error = 0.0\nsamples = 20\nvalue = 0.03", fillcolor="#fffffe"] ;
656 -> 692 ;
693 [label="avg_altitude <= 0.4\nsquared_error = 0.0\nsamples = 3\nvalue = 0.11", fillcolor="#fffefd"] ;
692 -> 693 ;
694 [label="dc <= 0.73\nsquared_error = 0.0\nsamples = 2\nvalue = 0.09", fillcolor="#fffefd"] ;
693 -> 694 ;
695 [label="squared_error = 0.0\nsamples = 1\nvalue = 0.1", fillcolor="#fffefd"] ;
694 -> 695 ;
696 [label="squared_error = 0.0\nsamples = 1\nvalue = 0.07", fillcolor="#fffefe"] ;
694 -> 696 ;
697 [label="squared_error = 0.0\nsamples = 1\nvalue = 0.14", fillcolor="#fffdfc"] ;
693 -> 697 ;
698 [label="lon <= 0.73\nsquared_error = 0.0\nsamples = 17\nvalue = 0.02", fillcolor="#ffffff"] ;
692 -> 698 ;
699 [label="duration <= 0.0\nsquared_error = 0.0\nsamples = 2\nvalue = 0.05", fillcolor="#fffefe"] ;
698 -> 699 ;
700 [label="squared_error = 0.0\nsamples = 1\nvalue = 0.05", fillcolor="#fffefe"] ;
699 -> 700 ;
701 [label="squared_error = 0.0\nsamples = 1\nvalue = 0.04", fillcolor="#fffefe"] ;
699 -> 701 ;
702 [label="dc <= 0.72\nsquared_error = 0.0\nsamples = 15\nvalue = 0.01", fillcolor="#ffffff"] ;
698 -> 702 ;
703 [label="lat <= 0.65\nsquared_error = 0.0\nsamples = 12\nvalue = 0.01", fillcolor="#ffffff"] ;
702 -> 703 ;
704 [label="cosn5variety <= 0.4\nsquared_error = 0.0\nsamples = 6\nvalue = 0.01", fillcolor="#ffffff"] ;
703 -> 704 ;
705 [label="squared_error = 0.0\nsamples = 1\nvalue = 0.02", fillcolor="#ffffff"] ;
704 -> 705 ;
706 [label="cosn5variety <= 0.55\nsquared_error = 0.0\nsamples = 5\nvalue = 0.01", fillcolor="#ffffff"] ;
704 -> 706 ;
707 [label="squared_error = 0.0\nsamples = 4\nvalue = 0.01", fillcolor="#ffffff"] ;
706 -> 707 ;
708 [label="squared_error = 0.0\nsamples = 1\nvalue = 0.0", fillcolor="#ffffff"] ;
706 -> 708 ;
709 [label="avg_altitude <= 0.4\nsquared_error = 0.0\nsamples = 6\nvalue = 0.0", fillcolor="#ffffff"] ;
703 -> 709 ;
710 [label="avg_altitude <= 0.36\nsquared_error = 0.0\nsamples = 2\nvalue = 0.01", fillcolor="#ffffff"] ;
709 -> 710 ;
711 [label="squared_error = 0.0\nsamples = 1\nvalue = 0.0", fillcolor="#ffffff"] ;
710 -> 711 ;
712 [label="squared_error = 0.0\nsamples = 1\nvalue = 0.01", fillcolor="#ffffff"] ;
710 -> 712 ;
713 [label="relative_humidity <= 0.31\nsquared_error = 0.0\nsamples = 4\nvalue = 0.0", fillcolor="#ffffff"] ;
709 -> 713 ;
714 [label="squared_error = 0.0\nsamples = 2\nvalue = 0.0", fillcolor="#ffffff"] ;
713 -> 714 ;
715 [label="lat <= 0.79\nsquared_error = 0.0\nsamples = 2\nvalue = 0.0", fillcolor="#ffffff"] ;
713 -> 715 ;
716 [label="squared_error = 0.0\nsamples = 1\nvalue = 0.0", fillcolor="#ffffff"] ;
715 -> 716 ;
717 [label="squared_error = 0.0\nsamples = 1\nvalue = 0.0", fillcolor="#ffffff"] ;
715 -> 717 ;
718 [label="dmc <= 0.62\nsquared_error = 0.0\nsamples = 3\nvalue = 0.04", fillcolor="#fffffe"] ;
702 -> 718 ;
719 [label="relative_humidity <= 0.31\nsquared_error = 0.0\nsamples = 2\nvalue = 0.04", fillcolor="#fffefe"] ;
718 -> 719 ;
720 [label="squared_error = 0.0\nsamples = 1\nvalue = 0.04", fillcolor="#fffefe"] ;
719 -> 720 ;
721 [label="squared_error = -0.0\nsamples = 1\nvalue = 0.04", fillcolor="#fffefe"] ;
719 -> 721 ;
722 [label="squared_error = -0.0\nsamples = 1\nvalue = 0.02", fillcolor="#ffffff"] ;
718 -> 722 ;
723 [label="rvdendity <= 0.09\nsquared_error = 0.12\nsamples = 7\nvalue = 0.28", fillcolor="#fefbf9"] ;
327 -> 723 ;
724 [label="dmc <= 0.12\nsquared_error = 0.08\nsamples = 2\nvalue = 0.71", fillcolor="#fdf6f0"] ;
723 -> 724 ;
725 [label="squared_error = 0.0\nsamples = 1\nvalue = 0.51", fillcolor="#fef8f4"] ;
724 -> 725 ;
726 [label="squared_error = 0.0\nsamples = 1\nvalue = 1.1", fillcolor="#fcf1e8"] ;
724 -> 726 ;
727 [label="doy <= 0.58\nsquared_error = 0.0\nsamples = 5\nvalue = 0.06", fillcolor="#fffefe"] ;
723 -> 727 ;
728 [label="doy <= 0.45\nsquared_error = 0.0\nsamples = 2\nvalue = 0.02", fillcolor="#ffffff"] ;
727 -> 728 ;
729 [label="squared_error = 0.0\nsamples = 1\nvalue = 0.02", fillcolor="#ffffff"] ;
728 -> 729 ;
730 [label="squared_error = -0.0\nsamples = 1\nvalue = 0.01", fillcolor="#ffffff"] ;
728 -> 730 ;
731 [label="wind_intensity <= 0.45\nsquared_error = 0.0\nsamples = 3\nvalue = 0.11", fillcolor="#fffefd"] ;
727 -> 731 ;
732 [label="squared_error = 0.0\nsamples = 1\nvalue = 0.13", fillcolor="#fffdfc"] ;
731 -> 732 ;
733 [label="squared_error = 0.0\nsamples = 2\nvalue = 0.1", fillcolor="#fffefd"] ;
731 -> 733 ;
734 [label="rvdendity <= 0.1\nsquared_error = 0.14\nsamples = 10\nvalue = 0.38", fillcolor="#fefaf7"] ;
148 -> 734 ;
735 [label="lat <= 0.87\nsquared_error = 0.05\nsamples = 3\nvalue = 0.79", fillcolor="#fdf5ef"] ;
734 -> 735 ;
736 [label="squared_error = 0.0\nsamples = 1\nvalue = 1.1", fillcolor="#fcf1e8"] ;
735 -> 736 ;
737 [label="dmc <= 0.2\nsquared_error = 0.0\nsamples = 2\nvalue = 0.64", fillcolor="#fdf7f2"] ;
735 -> 737 ;
738 [label="squared_error = 0.0\nsamples = 1\nvalue = 0.66", fillcolor="#fdf6f2"] ;
737 -> 738 ;
739 [label="squared_error = 0.0\nsamples = 1\nvalue = 0.62", fillcolor="#fdf7f2"] ;
737 -> 739 ;
740 [label="duration <= 0.0\nsquared_error = 0.02\nsamples = 7\nvalue = 0.1", fillcolor="#fffefd"] ;
734 -> 740 ;
741 [label="rvdendity <= 0.11\nsquared_error = 0.01\nsamples = 2\nvalue = 0.26", fillcolor="#fefcfa"] ;
740 -> 741 ;
742 [label="squared_error = 0.0\nsamples = 1\nvalue = 0.18", fillcolor="#fffdfb"] ;
741 -> 742 ;
743 [label="squared_error = 0.0\nsamples = 1\nvalue = 0.41", fillcolor="#fefaf7"] ;
741 -> 743 ;
744 [label="isi <= 0.3\nsquared_error = 0.0\nsamples = 5\nvalue = 0.02", fillcolor="#ffffff"] ;
740 -> 744 ;
745 [label="squared_error = 0.0\nsamples = 1\nvalue = 0.05", fillcolor="#fffefe"] ;
744 -> 745 ;
746 [label="avg_inclination <= 0.23\nsquared_error = 0.0\nsamples = 4\nvalue = 0.01", fillcolor="#ffffff"] ;
744 -> 746 ;
747 [label="squared_error = 0.0\nsamples = 1\nvalue = 0.02", fillcolor="#ffffff"] ;
746 -> 747 ;
748 [label="relative_humidity <= 0.37\nsquared_error = 0.0\nsamples = 3\nvalue = 0.01", fillcolor="#ffffff"] ;
746 -> 748 ;
749 [label="squared_error = 0.0\nsamples = 1\nvalue = 0.0", fillcolor="#ffffff"] ;
748 -> 749 ;
750 [label="squared_error = 0.0\nsamples = 2\nvalue = 0.01", fillcolor="#ffffff"] ;
748 -> 750 ;
751 [label="cosn5variety <= 0.4\nsquared_error = 0.26\nsamples = 6\nvalue = 0.83", fillcolor="#fdf4ee"] ;
65 -> 751 ;
752 [label="duration <= 0.0\nsquared_error = 0.04\nsamples = 3\nvalue = 1.14", fillcolor="#fcf0e8"] ;
751 -> 752 ;
753 [label="squared_error = 0.0\nsamples = 1\nvalue = 1.43", fillcolor="#fbece2"] ;
752 -> 753 ;
754 [label="ffmc <= 0.87\nsquared_error = 0.01\nsamples = 2\nvalue = 1.03", fillcolor="#fcf2ea"] ;
752 -> 754 ;
755 [label="squared_error = 0.0\nsamples = 1\nvalue = 0.92", fillcolor="#fdf3ec"] ;
754 -> 755 ;
756 [label="squared_error = 0.0\nsamples = 1\nvalue = 1.1", fillcolor="#fcf1e8"] ;
754 -> 756 ;
757 [label="isi <= 0.38\nsquared_error = 0.01\nsamples = 3\nvalue = 0.09", fillcolor="#fffefd"] ;
751 -> 757 ;
758 [label="avg_altitude <= 0.21\nsquared_error = 0.0\nsamples = 2\nvalue = 0.01", fillcolor="#ffffff"] ;
757 -> 758 ;
759 [label="squared_error = 0.0\nsamples = 1\nvalue = 0.01", fillcolor="#ffffff"] ;
758 -> 759 ;
760 [label="squared_error = 0.0\nsamples = 1\nvalue = 0.0", fillcolor="#ffffff"] ;
758 -> 760 ;
761 [label="squared_error = 0.0\nsamples = 1\nvalue = 0.25", fillcolor="#fefcfa"] ;
757 -> 761 ;
762 [label="duration <= 0.0\nsquared_error = 0.05\nsamples = 3177\nvalue = 0.09", fillcolor="#fffefd"] ;
4 -> 762 ;
763 [label="dc <= 0.09\nsquared_error = 0.03\nsamples = 1777\nvalue = 0.06", fillcolor="#fffefe"] ;
762 -> 763 ;
764 [label="avg_altitude <= 0.45\nsquared_error = 0.04\nsamples = 244\nvalue = 0.1", fillcolor="#fffefd"] ;
763 -> 764 ;
765 [label="isi <= 0.56\nsquared_error = 0.03\nsamples = 220\nvalue = 0.08", fillcolor="#fffefd"] ;
764 -> 765 ;
766 [label="relative_humidity <= 0.45\nsquared_error = 0.02\nsamples = 218\nvalue = 0.08", fillcolor="#fffefd"] ;
765 -> 766 ;
767 [label="wind_intensity <= 0.16\nsquared_error = 0.05\nsamples = 89\nvalue = 0.12", fillcolor="#fffdfd"] ;
766 -> 767 ;
768 [label="squared_error = 0.0\nsamples = 1\nvalue = 1.35", fillcolor="#fbede3"] ;
767 -> 768 ;
769 [label="lat <= 0.96\nsquared_error = 0.04\nsamples = 88\nvalue = 0.11", fillcolor="#fffefd"] ;
767 -> 769 ;
770 [label="duration <= 0.0\nsquared_error = 0.03\nsamples = 86\nvalue = 0.1", fillcolor="#fffefd"] ;
769 -> 770 ;
771 [label="rvdendity <= 0.42\nsquared_error = 0.07\nsamples = 2\nvalue = 0.4", fillcolor="#fefaf7"] ;
770 -> 771 ;
772 [label="squared_error = 0.0\nsamples = 1\nvalue = 0.01", fillcolor="#ffffff"] ;
771 -> 772 ;
773 [label="squared_error = 0.0\nsamples = 1\nvalue = 0.59", fillcolor="#fdf7f3"] ;
771 -> 773 ;
774 [label="cosn5variety <= 0.24\nsquared_error = 0.03\nsamples = 84\nvalue = 0.09", fillcolor="#fffefd"] ;
770 -> 774 ;
775 [label="lat <= 0.84\nsquared_error = 0.05\nsamples = 3\nvalue = 0.38", fillcolor="#fefaf7"] ;
774 -> 775 ;
776 [label="rvdendity <= 0.46\nsquared_error = 0.01\nsamples = 2\nvalue = 0.22", fillcolor="#fefcfa"] ;
775 -> 776 ;
777 [label="squared_error = 0.0\nsamples = 1\nvalue = 0.14", fillcolor="#fffdfc"] ;
776 -> 777 ;
778 [label="squared_error = 0.0\nsamples = 1\nvalue = 0.3", fillcolor="#fefbf9"] ;
776 -> 778 ;
779 [label="squared_error = 0.0\nsamples = 1\nvalue = 0.69", fillcolor="#fdf6f1"] ;
775 -> 779 ;
780 [label="avg_inclination <= 0.41\nsquared_error = 0.02\nsamples = 81\nvalue = 0.08", fillcolor="#fffefd"] ;
774 -> 780 ;
781 [label="ffmc <= 0.95\nsquared_error = 0.01\nsamples = 69\nvalue = 0.07", fillcolor="#fffefe"] ;
780 -> 781 ;
782 [label="dc <= 0.07\nsquared_error = 0.0\nsamples = 56\nvalue = 0.04", fillcolor="#fffefe"] ;
781 -> 782 ;
783 [label="rvdendity <= 0.36\nsquared_error = 0.0\nsamples = 51\nvalue = 0.03", fillcolor="#fffffe"] ;
782 -> 783 ;
784 [label="dc <= 0.03\nsquared_error = 0.0\nsamples = 32\nvalue = 0.01", fillcolor="#ffffff"] ;
783 -> 784 ;
785 [label="rvdendity <= 0.34\nsquared_error = 0.0\nsamples = 9\nvalue = 0.03", fillcolor="#fffffe"] ;
784 -> 785 ;
786 [label="doy <= 0.63\nsquared_error = 0.0\nsamples = 7\nvalue = 0.02", fillcolor="#ffffff"] ;
785 -> 786 ;
787 [label="lon <= 0.17\nsquared_error = 0.0\nsamples = 6\nvalue = 0.01", fillcolor="#ffffff"] ;
786 -> 787 ;
788 [label="squared_error = 0.0\nsamples = 2\nvalue = 0.02", fillcolor="#ffffff"] ;
787 -> 788 ;
789 [label="wind_intensity <= 0.69\nsquared_error = 0.0\nsamples = 4\nvalue = 0.01", fillcolor="#ffffff"] ;
787 -> 789 ;
790 [label="relative_humidity <= 0.35\nsquared_error = 0.0\nsamples = 2\nvalue = 0.01", fillcolor="#ffffff"] ;
789 -> 790 ;
791 [label="squared_error = 0.0\nsamples = 1\nvalue = 0.01", fillcolor="#ffffff"] ;
790 -> 791 ;
792 [label="squared_error = 0.0\nsamples = 1\nvalue = 0.01", fillcolor="#ffffff"] ;
790 -> 792 ;
793 [label="cosn5variety <= 0.5\nsquared_error = 0.0\nsamples = 2\nvalue = 0.0", fillcolor="#ffffff"] ;
789 -> 793 ;
794 [label="squared_error = 0.0\nsamples = 1\nvalue = 0.0", fillcolor="#ffffff"] ;
793 -> 794 ;
795 [label="squared_error = -0.0\nsamples = 1\nvalue = 0.0", fillcolor="#ffffff"] ;
793 -> 795 ;
796 [label="squared_error = 0.0\nsamples = 1\nvalue = 0.07", fillcolor="#fffefe"] ;
786 -> 796 ;
797 [label="squared_error = 0.0\nsamples = 2\nvalue = 0.05", fillcolor="#fffefe"] ;
785 -> 797 ;
798 [label="doy <= 0.04\nsquared_error = 0.0\nsamples = 23\nvalue = 0.01", fillcolor="#ffffff"] ;
784 -> 798 ;
799 [label="squared_error = 0.0\nsamples = 1\nvalue = 0.06", fillcolor="#fffefe"] ;
798 -> 799 ;
800 [label="duration <= 0.0\nsquared_error = 0.0\nsamples = 22\nvalue = 0.01", fillcolor="#ffffff"] ;
798 -> 800 ;
801 [label="isi <= 0.41\nsquared_error = 0.0\nsamples = 19\nvalue = 0.01", fillcolor="#ffffff"] ;
800 -> 801 ;
802 [label="relative_humidity <= 0.38\nsquared_error = 0.0\nsamples = 13\nvalue = 0.01", fillcolor="#ffffff"] ;
801 -> 802 ;
803 [label="duration <= 0.0\nsquared_error = 0.0\nsamples = 9\nvalue = 0.01", fillcolor="#ffffff"] ;
802 -> 803 ;
804 [label="dmc <= 0.09\nsquared_error = 0.0\nsamples = 7\nvalue = 0.01", fillcolor="#ffffff"] ;
803 -> 804 ;
805 [label="squared_error = -0.0\nsamples = 6\nvalue = 0.01", fillcolor="#ffffff"] ;
804 -> 805 ;
806 [label="squared_error = -0.0\nsamples = 1\nvalue = 0.02", fillcolor="#ffffff"] ;
804 -> 806 ;
807 [label="squared_error = -0.0\nsamples = 2\nvalue = 0.02", fillcolor="#ffffff"] ;
803 -> 807 ;
808 [label="lon <= 0.23\nsquared_error = 0.0\nsamples = 4\nvalue = 0.0", fillcolor="#ffffff"] ;
802 -> 808 ;
809 [label="lon <= 0.2\nsquared_error = 0.0\nsamples = 2\nvalue = 0.01", fillcolor="#ffffff"] ;
808 -> 809 ;
810 [label="squared_error = 0.0\nsamples = 1\nvalue = 0.01", fillcolor="#ffffff"] ;
809 -> 810 ;
811 [label="squared_error = -0.0\nsamples = 1\nvalue = 0.0", fillcolor="#ffffff"] ;
809 -> 811 ;
812 [label="rvdendity <= 0.29\nsquared_error = 0.0\nsamples = 2\nvalue = 0.0", fillcolor="#ffffff"] ;
808 -> 812 ;
813 [label="squared_error = 0.0\nsamples = 1\nvalue = 0.0", fillcolor="#ffffff"] ;
812 -> 813 ;
814 [label="squared_error = 0.0\nsamples = 1\nvalue = 0.0", fillcolor="#ffffff"] ;
812 -> 814 ;
815 [label="avg_altitude <= 0.16\nsquared_error = 0.0\nsamples = 6\nvalue = 0.0", fillcolor="#ffffff"] ;
801 -> 815 ;
816 [label="avg_altitude <= 0.12\nsquared_error = 0.0\nsamples = 2\nvalue = 0.0", fillcolor="#ffffff"] ;
815 -> 816 ;
817 [label="squared_error = 0.0\nsamples = 1\nvalue = 0.0", fillcolor="#ffffff"] ;
816 -> 817 ;
818 [label="squared_error = 0.0\nsamples = 1\nvalue = 0.0", fillcolor="#ffffff"] ;
816 -> 818 ;
819 [label="rvdendity <= 0.25\nsquared_error = 0.0\nsamples = 4\nvalue = 0.0", fillcolor="#ffffff"] ;
815 -> 819 ;
820 [label="lon <= 0.67\nsquared_error = 0.0\nsamples = 2\nvalue = 0.0", fillcolor="#ffffff"] ;
819 -> 820 ;
821 [label="squared_error = 0.0\nsamples = 1\nvalue = 0.0", fillcolor="#ffffff"] ;
820 -> 821 ;
822 [label="squared_error = 0.0\nsamples = 1\nvalue = 0.0", fillcolor="#ffffff"] ;
820 -> 822 ;
823 [label="avg_inclination <= 0.2\nsquared_error = 0.0\nsamples = 2\nvalue = 0.0", fillcolor="#ffffff"] ;
819 -> 823 ;
824 [label="squared_error = 0.0\nsamples = 1\nvalue = 0.0", fillcolor="#ffffff"] ;
823 -> 824 ;
825 [label="squared_error = 0.0\nsamples = 1\nvalue = 0.0", fillcolor="#ffffff"] ;
823 -> 825 ;
826 [label="avg_altitude <= 0.18\nsquared_error = 0.0\nsamples = 3\nvalue = 0.02", fillcolor="#ffffff"] ;
800 -> 826 ;
827 [label="squared_error = 0.0\nsamples = 2\nvalue = 0.02", fillcolor="#ffffff"] ;
826 -> 827 ;
828 [label="squared_error = 0.0\nsamples = 1\nvalue = 0.03", fillcolor="#fffffe"] ;
826 -> 828 ;
829 [label="dmc <= 0.09\nsquared_error = 0.0\nsamples = 19\nvalue = 0.07", fillcolor="#fffefd"] ;
783 -> 829 ;
830 [label="lat <= 0.26\nsquared_error = 0.0\nsamples = 13\nvalue = 0.04", fillcolor="#fffefe"] ;
829 -> 830 ;
831 [label="squared_error = 0.0\nsamples = 1\nvalue = 0.14", fillcolor="#fffdfc"] ;
830 -> 831 ;
832 [label="cosn5variety <= 0.59\nsquared_error = 0.0\nsamples = 12\nvalue = 0.03", fillcolor="#fffffe"] ;
830 -> 832 ;
833 [label="lat <= 0.76\nsquared_error = 0.0\nsamples = 9\nvalue = 0.02", fillcolor="#ffffff"] ;
832 -> 833 ;
834 [label="doy <= 0.39\nsquared_error = 0.0\nsamples = 5\nvalue = 0.02", fillcolor="#ffffff"] ;
833 -> 834 ;
835 [label="squared_error = -0.0\nsamples = 3\nvalue = 0.02", fillcolor="#ffffff"] ;
834 -> 835 ;
836 [label="squared_error = 0.0\nsamples = 2\nvalue = 0.03", fillcolor="#fffffe"] ;
834 -> 836 ;
837 [label="relative_humidity <= 0.39\nsquared_error = 0.0\nsamples = 4\nvalue = 0.01", fillcolor="#ffffff"] ;
833 -> 837 ;
838 [label="cosn5variety <= 0.44\nsquared_error = 0.0\nsamples = 3\nvalue = 0.01", fillcolor="#ffffff"] ;
837 -> 838 ;
839 [label="squared_error = -0.0\nsamples = 2\nvalue = 0.01", fillcolor="#ffffff"] ;
838 -> 839 ;
840 [label="squared_error = -0.0\nsamples = 1\nvalue = 0.01", fillcolor="#ffffff"] ;
838 -> 840 ;
841 [label="squared_error = 0.0\nsamples = 1\nvalue = 0.0", fillcolor="#ffffff"] ;
837 -> 841 ;
842 [label="ffmc <= 0.8\nsquared_error = 0.0\nsamples = 3\nvalue = 0.06", fillcolor="#fffefe"] ;
832 -> 842 ;
843 [label="squared_error = -0.0\nsamples = 2\nvalue = 0.05", fillcolor="#fffefe"] ;
842 -> 843 ;
844 [label="squared_error = -0.0\nsamples = 1\nvalue = 0.08", fillcolor="#fffefd"] ;
842 -> 844 ;
845 [label="avg_inclination <= 0.29\nsquared_error = 0.01\nsamples = 6\nvalue = 0.14", fillcolor="#fffdfc"] ;
829 -> 845 ;
846 [label="lat <= 0.83\nsquared_error = 0.0\nsamples = 4\nvalue = 0.09", fillcolor="#fffefd"] ;
845 -> 846 ;
847 [label="dc <= 0.06\nsquared_error = 0.0\nsamples = 3\nvalue = 0.07", fillcolor="#fffefe"] ;
846 -> 847 ;
848 [label="squared_error = 0.0\nsamples = 2\nvalue = 0.04", fillcolor="#fffefe"] ;
847 -> 848 ;
849 [label="squared_error = 0.0\nsamples = 1\nvalue = 0.1", fillcolor="#fffefd"] ;
847 -> 849 ;
850 [label="squared_error = 0.0\nsamples = 1\nvalue = 0.18", fillcolor="#fffdfb"] ;
846 -> 850 ;
851 [label="dc <= 0.04\nsquared_error = 0.0\nsamples = 2\nvalue = 0.2", fillcolor="#fefcfb"] ;
845 -> 851 ;
852 [label="squared_error = 0.0\nsamples = 1\nvalue = 0.26", fillcolor="#fefcfa"] ;
851 -> 852 ;
853 [label="squared_error = 0.0\nsamples = 1\nvalue = 0.18", fillcolor="#fffdfb"] ;
851 -> 853 ;
854 [label="avg_altitude <= 0.08\nsquared_error = 0.02\nsamples = 5\nvalue = 0.14", fillcolor="#fffdfc"] ;
782 -> 854 ;
855 [label="avg_altitude <= 0.04\nsquared_error = 0.0\nsamples = 2\nvalue = 0.01", fillcolor="#ffffff"] ;
854 -> 855 ;
856 [label="squared_error = 0.0\nsamples = 1\nvalue = 0.0", fillcolor="#ffffff"] ;
855 -> 856 ;
857 [label="squared_error = 0.0\nsamples = 1\nvalue = 0.02", fillcolor="#ffffff"] ;
855 -> 857 ;
858 [label="duration <= 0.0\nsquared_error = 0.01\nsamples = 3\nvalue = 0.24", fillcolor="#fefcfa"] ;
854 -> 858 ;
859 [label="wind_intensity <= 0.58\nsquared_error = 0.0\nsamples = 2\nvalue = 0.18", fillcolor="#fffdfb"] ;
858 -> 859 ;
860 [label="squared_error = 0.0\nsamples = 1\nvalue = 0.2", fillcolor="#fefcfb"] ;
859 -> 860 ;
861 [label="squared_error = 0.0\nsamples = 1\nvalue = 0.15", fillcolor="#fffdfc"] ;
859 -> 861 ;
862 [label="squared_error = -0.0\nsamples = 1\nvalue = 0.41", fillcolor="#fefaf7"] ;
858 -> 862 ;
863 [label="rvdendity <= 0.3\nsquared_error = 0.02\nsamples = 13\nvalue = 0.16", fillcolor="#fffdfc"] ;
781 -> 863 ;
864 [label="ffmc <= 0.96\nsquared_error = 0.02\nsamples = 6\nvalue = 0.26", fillcolor="#fefcfa"] ;
863 -> 864 ;
865 [label="wind_intensity <= 0.45\nsquared_error = 0.0\nsamples = 4\nvalue = 0.37", fillcolor="#fefaf7"] ;
864 -> 865 ;
866 [label="squared_error = -0.0\nsamples = 1\nvalue = 0.34", fillcolor="#fefbf8"] ;
865 -> 866 ;
867 [label="duration <= 0.0\nsquared_error = 0.0\nsamples = 3\nvalue = 0.39", fillcolor="#fefaf7"] ;
865 -> 867 ;
868 [label="squared_error = 0.0\nsamples = 1\nvalue = 0.37", fillcolor="#fefaf7"] ;
867 -> 868 ;
869 [label="squared_error = 0.0\nsamples = 2\nvalue = 0.41", fillcolor="#fefaf7"] ;
867 -> 869 ;
870 [label="doy <= 0.51\nsquared_error = 0.0\nsamples = 2\nvalue = 0.08", fillcolor="#fffefd"] ;
864 -> 870 ;
871 [label="squared_error = 0.0\nsamples = 1\nvalue = 0.1", fillcolor="#fffefd"] ;
870 -> 871 ;
872 [label="squared_error = 0.0\nsamples = 1\nvalue = 0.05", fillcolor="#fffefe"] ;
870 -> 872 ;
873 [label="lon <= 0.15\nsquared_error = 0.0\nsamples = 7\nvalue = 0.03", fillcolor="#fffffe"] ;
863 -> 873 ;
874 [label="squared_error = 0.0\nsamples = 2\nvalue = 0.1", fillcolor="#fffefd"] ;
873 -> 874 ;
875 [label="cosn5variety <= 0.45\nsquared_error = 0.0\nsamples = 5\nvalue = 0.02", fillcolor="#ffffff"] ;
873 -> 875 ;
876 [label="squared_error = 0.0\nsamples = 1\nvalue = 0.08", fillcolor="#fffefd"] ;
875 -> 876 ;
877 [label="relative_humidity <= 0.22\nsquared_error = 0.0\nsamples = 4\nvalue = 0.01", fillcolor="#ffffff"] ;
875 -> 877 ;
878 [label="ffmc <= 0.96\nsquared_error = 0.0\nsamples = 2\nvalue = 0.01", fillcolor="#ffffff"] ;
877 -> 878 ;
879 [label="squared_error = 0.0\nsamples = 1\nvalue = 0.01", fillcolor="#ffffff"] ;
878 -> 879 ;
880 [label="squared_error = 0.0\nsamples = 1\nvalue = 0.02", fillcolor="#ffffff"] ;
878 -> 880 ;
881 [label="avg_inclination <= 0.07\nsquared_error = 0.0\nsamples = 2\nvalue = 0.0", fillcolor="#ffffff"] ;
877 -> 881 ;
882 [label="squared_error = 0.0\nsamples = 1\nvalue = 0.0", fillcolor="#ffffff"] ;
881 -> 882 ;
883 [label="squared_error = 0.0\nsamples = 1\nvalue = 0.0", fillcolor="#ffffff"] ;
881 -> 883 ;
884 [label="avg_inclination <= 0.43\nsquared_error = 0.09\nsamples = 12\nvalue = 0.21", fillcolor="#fefcfb"] ;
780 -> 884 ;
885 [label="squared_error = 0.0\nsamples = 1\nvalue = 1.1", fillcolor="#fcf1e8"] ;
884 -> 885 ;
886 [label="rvdendity <= 0.24\nsquared_error = 0.03\nsamples = 11\nvalue = 0.15", fillcolor="#fffdfc"] ;
884 -> 886 ;
887 [label="doy <= 0.3\nsquared_error = 0.0\nsamples = 5\nvalue = 0.02", fillcolor="#fffffe"] ;
886 -> 887 ;
888 [label="doy <= 0.2\nsquared_error = 0.0\nsamples = 4\nvalue = 0.01", fillcolor="#ffffff"] ;
887 -> 888 ;
889 [label="isi <= 0.26\nsquared_error = 0.0\nsamples = 2\nvalue = 0.01", fillcolor="#ffffff"] ;
888 -> 889 ;
890 [label="squared_error = 0.0\nsamples = 1\nvalue = 0.01", fillcolor="#ffffff"] ;
889 -> 890 ;
891 [label="squared_error = 0.0\nsamples = 1\nvalue = 0.01", fillcolor="#ffffff"] ;
889 -> 891 ;
892 [label="avg_altitude <= 0.27\nsquared_error = 0.0\nsamples = 2\nvalue = 0.0", fillcolor="#ffffff"] ;
888 -> 892 ;
893 [label="squared_error = 0.0\nsamples = 1\nvalue = 0.0", fillcolor="#ffffff"] ;
892 -> 893 ;
894 [label="squared_error = 0.0\nsamples = 1\nvalue = 0.0", fillcolor="#ffffff"] ;
892 -> 894 ;
895 [label="squared_error = 0.0\nsamples = 1\nvalue = 0.06", fillcolor="#fffefe"] ;
887 -> 895 ;
896 [label="wind_intensity <= 0.55\nsquared_error = 0.03\nsamples = 6\nvalue = 0.31", fillcolor="#fefbf9"] ;
886 -> 896 ;
897 [label="wind_intensity <= 0.39\nsquared_error = 0.0\nsamples = 3\nvalue = 0.46", fillcolor="#fef9f6"] ;
896 -> 897 ;
898 [label="squared_error = 0.0\nsamples = 1\nvalue = 0.53", fillcolor="#fef8f4"] ;
897 -> 898 ;
899 [label="rvdendity <= 0.46\nsquared_error = 0.0\nsamples = 2\nvalue = 0.43", fillcolor="#fef9f6"] ;
897 -> 899 ;
900 [label="squared_error = 0.0\nsamples = 1\nvalue = 0.45", fillcolor="#fef9f6"] ;
899 -> 900 ;
901 [label="squared_error = 0.0\nsamples = 1\nvalue = 0.41", fillcolor="#fefaf7"] ;
899 -> 901 ;
902 [label="avg_inclination <= 0.62\nsquared_error = 0.01\nsamples = 3\nvalue = 0.16", fillcolor="#fffdfc"] ;
896 -> 902 ;
903 [label="dmc <= 0.04\nsquared_error = 0.0\nsamples = 2\nvalue = 0.23", fillcolor="#fefcfa"] ;
902 -> 903 ;
904 [label="squared_error = 0.0\nsamples = 1\nvalue = 0.23", fillcolor="#fefcfa"] ;
903 -> 904 ;
905 [label="squared_error = -0.0\nsamples = 1\nvalue = 0.23", fillcolor="#fefcfa"] ;
903 -> 905 ;
906 [label="squared_error = 0.0\nsamples = 1\nvalue = 0.01", fillcolor="#ffffff"] ;
902 -> 906 ;
907 [label="doy <= 0.27\nsquared_error = 0.09\nsamples = 2\nvalue = 0.52", fillcolor="#fef8f4"] ;
769 -> 907 ;
908 [label="squared_error = -0.0\nsamples = 1\nvalue = 0.69", fillcolor="#fdf6f1"] ;
907 -> 908 ;
909 [label="squared_error = 0.0\nsamples = 1\nvalue = 0.01", fillcolor="#ffffff"] ;
907 -> 909 ;
910 [label="doy <= 0.97\nsquared_error = 0.01\nsamples = 129\nvalue = 0.05", fillcolor="#fffefe"] ;
766 -> 910 ;
911 [label="avg_altitude <= 0.43\nsquared_error = 0.0\nsamples = 125\nvalue = 0.04", fillcolor="#fffefe"] ;
910 -> 911 ;
912 [label="duration <= 0.0\nsquared_error = 0.0\nsamples = 120\nvalue = 0.04", fillcolor="#fffefe"] ;
911 -> 912 ;
913 [label="squared_error = 0.0\nsamples = 1\nvalue = 0.26", fillcolor="#fefcfa"] ;
912 -> 913 ;
914 [label="wind_intensity <= 0.75\nsquared_error = 0.0\nsamples = 119\nvalue = 0.04", fillcolor="#fffffe"] ;
912 -> 914 ;
915 [label="rvdendity <= 0.45\nsquared_error = 0.0\nsamples = 111\nvalue = 0.03", fillcolor="#fffffe"] ;
914 -> 915 ;
916 [label="doy <= 0.16\nsquared_error = 0.0\nsamples = 87\nvalue = 0.03", fillcolor="#fffffe"] ;
915 -> 916 ;
917 [label="doy <= 0.15\nsquared_error = 0.0\nsamples = 14\nvalue = 0.07", fillcolor="#fffefe"] ;
916 -> 917 ;
918 [label="lon <= 0.45\nsquared_error = 0.0\nsamples = 12\nvalue = 0.06", fillcolor="#fffefe"] ;
917 -> 918 ;
919 [label="wind_intensity <= 0.53\nsquared_error = 0.0\nsamples = 7\nvalue = 0.02", fillcolor="#ffffff"] ;
918 -> 919 ;
920 [label="doy <= 0.08\nsquared_error = 0.0\nsamples = 4\nvalue = 0.01", fillcolor="#ffffff"] ;
919 -> 920 ;
921 [label="squared_error = 0.0\nsamples = 2\nvalue = 0.02", fillcolor="#ffffff"] ;
920 -> 921 ;
922 [label="ffmc <= 0.88\nsquared_error = 0.0\nsamples = 2\nvalue = 0.0", fillcolor="#ffffff"] ;
920 -> 922 ;
923 [label="squared_error = 0.0\nsamples = 1\nvalue = 0.0", fillcolor="#ffffff"] ;
922 -> 923 ;
924 [label="squared_error = -0.0\nsamples = 1\nvalue = 0.0", fillcolor="#ffffff"] ;
922 -> 924 ;
925 [label="rvdendity <= 0.3\nsquared_error = 0.0\nsamples = 3\nvalue = 0.05", fillcolor="#fffefe"] ;
919 -> 925 ;
926 [label="squared_error = 0.0\nsamples = 1\nvalue = 0.04", fillcolor="#fffefe"] ;
925 -> 926 ;
927 [label="squared_error = -0.0\nsamples = 2\nvalue = 0.05", fillcolor="#fffefe"] ;
925 -> 927 ;
928 [label="relative_humidity <= 0.5\nsquared_error = 0.0\nsamples = 5\nvalue = 0.09", fillcolor="#fffefd"] ;
918 -> 928 ;
929 [label="squared_error = 0.0\nsamples = 1\nvalue = 0.18", fillcolor="#fffdfb"] ;
928 -> 929 ;
930 [label="duration <= 0.0\nsquared_error = 0.0\nsamples = 4\nvalue = 0.08", fillcolor="#fffefd"] ;
928 -> 930 ;
931 [label="squared_error = 0.0\nsamples = 2\nvalue = 0.1", fillcolor="#fffefd"] ;
930 -> 931 ;
932 [label="squared_error = 0.0\nsamples = 2\nvalue = 0.07", fillcolor="#fffefe"] ;
930 -> 932 ;
933 [label="avg_inclination <= 0.24\nsquared_error = 0.0\nsamples = 2\nvalue = 0.17", fillcolor="#fffdfb"] ;
917 -> 933 ;
934 [label="squared_error = 0.0\nsamples = 1\nvalue = 0.21", fillcolor="#fefcfb"] ;
933 -> 934 ;
935 [label="squared_error = 0.0\nsamples = 1\nvalue = 0.14", fillcolor="#fffdfc"] ;
933 -> 935 ;
936 [label="avg_altitude <= 0.05\nsquared_error = 0.0\nsamples = 73\nvalue = 0.02", fillcolor="#ffffff"] ;
916 -> 936 ;
937 [label="dmc <= 0.05\nsquared_error = 0.0\nsamples = 10\nvalue = 0.05", fillcolor="#fffefe"] ;
936 -> 937 ;
938 [label="ffmc <= 0.88\nsquared_error = 0.0\nsamples = 3\nvalue = 0.12", fillcolor="#fffdfd"] ;
937 -> 938 ;
939 [label="wind_intensity <= 0.37\nsquared_error = 0.0\nsamples = 2\nvalue = 0.1", fillcolor="#fffefd"] ;
938 -> 939 ;
940 [label="squared_error = 0.0\nsamples = 1\nvalue = 0.1", fillcolor="#fffefd"] ;
939 -> 940 ;
941 [label="squared_error = 0.0\nsamples = 1\nvalue = 0.1", fillcolor="#fffefd"] ;
939 -> 941 ;
